{"learner":{"attributes":{"best_iteration":"299","best_score":"0.00012210776826329","scikit_learn":"{\"_estimator_type\": \"regressor\"}"},"feature_names":["traffic_density","delay_seconds","precipitation_mm","visibility_km","road_condition","time_of_day","news_sentiment","traffic_x_weather","delay_x_road"],"feature_types":["float","float","float","float","int","float","float","float","float"],"gradient_booster":{"model":{"cats":{"enc":[],"feature_segments":[],"sorted_idx":[]},"gbtree_model_param":{"num_parallel_tree":"1","num_trees":"300"},"iteration_indptr":[0,1,2,3,4,5,6,7,8,9,10,11,12,13,14,15,16,17,18,19,20,21,22,23,24,25,26,27,28,29,30,31,32,33,34,35,36,37,38,39,40,41,42,43,44,45,46,47,48,49,50,51,52,53,54,55,56,57,58,59,60,61,62,63,64,65,66,67,68,69,70,71,72,73,74,75,76,77,78,79,80,81,82,83,84,85,86,87,88,89,90,91,92,93,94,95,96,97,98,99,100,101,102,103,104,105,106,107,108,109,110,111,112,113,114,115,116,117,118,119,120,121,122,123,124,125,126,127,128,129,130,131,132,133,134,135,136,137,138,139,140,141,142,143,144,145,146,147,148,149,150,151,152,153,154,155,156,157,158,159,160,161,162,163,164,165,166,167,168,169,170,171,172,173,174,175,176,177,178,179,180,181,182,183,184,185,186,187,188,189,190,191,192,193,194,195,196,197,198,199,200,201,202,203,204,205,206,207,208,209,210,211,212,213,214,215,216,217,218,219,220,221,222,223,224,225,226,227,228,229,230,231,232,233,234,235,236,237,238,239,240,241,242,243,244,245,246,247,248,249,250,251,252,253,254,255,256,257,258,259,260,261,262,263,264,265,266,267,268,269,270,271,272,273,274,275,276,277,278,279,280,281,282,283,284,285,286,287,288,289,290,291,292,293,294,295,296,297,298,299,300],"tree_info":[0,0,0,0,0,0,0,0,0,0,0,0,0,0,0,0,0,0,0,0,0,0,0,0,0,0,0,0,0,0,0,0,0,0,0,0,0,0,0,0,0,0,0,0,0,0,0,0,0,0,0,0,0,0,0,0,0,0,0,0,0,0,0,0,0,0,0,0,0,0,0,0,0,0,0,0,0,0,0,0,0,0,0,0,0,0,0,0,0,0,0,0,0,0,0,0,0,0,0,0,0,0,0,0,0,0,0,0,0,0,0,0,0,0,0,0,0,0,0,0,0,0,0,0,0,0,0,0,0,0,0,0,0,0,0,0,0,0,0,0,0,0,0,0,0,0,0,0,0,0,0,0,0,0,0,0,0,0,0,0,0,0,0,0,0,0,0,0,0,0,0,0,0,0,0,0,0,0,0,0,0,0,0,0,0,0,0,0,0,0,0,0,0,0,0,0,0,0,0,0,0,0,0,0,0,0,0,0,0,0,0,0,0,0,0,0,0,0,0,0,0,0,0,0,0,0,0,0,0,0,0,0,0,0,0,0,0,0,0,0,0,0,0,0,0,0,0,0,0,0,0,0,0,0,0,0,0,0,0,0,0,0,0,0,0,0,0,0,0,0,0,0,0,0,0,0,0,0,0,0,0,0,0,0,0,0,0,0,0,0,0,0,0,0,0,0,0,0,0,0],"trees":[{"base_weights":[-2.0525684E-5,-7.099125E-2,2.6320085E-1,-1.589635E-2,-3.3967185E-3,1.1603265E-2,2.4103075E-2],"categories":[],"categories_nodes":[],"categories_segments":[],"categories_sizes":[],"default_left":[0,0,0,0,0,0,0],"id":0,"left_children":[1,3,5,-1,-1,-1,-1],"loss_changes":[8.351453E4,2.6579316E3,6.4693594E3,0E0,0E0,0E0,0E0],"parents":[2147483647,0,0,1,1,2,2],"right_children":[2,4,6,-1,-1,-1,-1],"split_conditions":[6E1,4E1,8E1,-1.589635E-2,-3.3967185E-3,1.1603265E-2,2.4103075E-2],"split_indices":[0,0,0,0,0,0,0],"split_type":[0,0,0,0,0,0,0],"sum_hessian":[4.470555E6,3.521166E6,9.49389E5,4.3055E4,3.478111E6,8.3115E5,1.18239E5],"tree_param":{"num_deleted":"0","num_feature":"9","num_nodes":"7","size_leaf_vector":"1"}},{"base_weights":[-1.5871454E-5,-6.744168E-2,2.50031E-1,-1.5101552E-2,-3.226883E-3,1.1023103E-2,2.2897933E-2],"categories":[],"categories_nodes":[],"categories_segments":[],"categories_sizes":[],"default_left":[0,0,0,0,0,0,0],"id":1,"left_children":[1,3,5,-1,-1,-1,-1],"loss_changes":[7.537723E4,2.3989023E3,5.8378477E3,0E0,0E0,0E0,0E0],"parents":[2147483647,0,0,1,1,2,2],"right_children":[2,4,6,-1,-1,-1,-1],"split_conditions":[6E1,4E1,8E1,-1.5101552E-2,-3.226883E-3,1.1023103E-2,2.2897933E-2],"split_indices":[0,0,0,0,0,0,0],"split_type":[0,0,0,0,0,0,0],"sum_hessian":[4.470873E6,3.521336E6,9.49537E5,4.3057E4,3.478279E6,8.31319E5,1.18218E5],"tree_param":{"num_deleted":"0","num_feature":"9","num_nodes":"7","size_leaf_vector":"1"}},{"base_weights":[-4.076423E-5,-6.407725E-2,2.3744833E-1,-1.43464925E-2,-3.065539E-3,1.0471948E-2,2.1753043E-2],"categories":[],"categories_nodes":[],"categories_segments":[],"categories_sizes":[],"default_left":[0,0,0,0,0,0,0],"id":2,"left_children":[1,3,5,-1,-1,-1,-1],"loss_changes":[6.7987125E4,2.1707764E3,5.254957E3,0E0,0E0,0E0,0E0],"parents":[2147483647,0,0,1,1,2,2],"right_children":[2,4,6,-1,-1,-1,-1],"split_conditions":[6E1,4E1,8E1,-1.43464925E-2,-3.065539E-3,1.0471948E-2,2.1753043E-2],"split_indices":[0,0,0,0,0,0,0],"split_type":[0,0,0,0,0,0,0],"sum_hessian":[4.470492E6,3.521072E6,9.4942E5,4.3173E4,3.477899E6,8.31558E5,1.17862E5],"tree_param":{"num_deleted":"0","num_feature":"9","num_nodes":"7","size_leaf_vector":"1"}},{"base_weights":[-2.149073E-5,1.3862668E-2,-1.5135115E-2,3.4126295E-3,2.4296546E-2,-3.229252E-2,-4.603207E-3,3.8517898E-4,4.5396615E-2,2.2105152E-2,6.1762072E-2,-3.5951953E-2,-2.306243E-2,-7.2902157E-3,6.9961004E-2,-2.111291E-3,4.268822E-2,4.2875677E-2,8.380345E-2,2.3194285E-2,-6.482872E-2,2.0067255E-1,4.367242E-2,-3.606634E-2,5.6628667E-2,-2.3336353E-2,9.248969E-2,-1.0951019E-2,2.808885E-3,4.8177425E-2,1.0249957E-1,-1.1247386E-3,-6.415709E-2,2.0155104E-1,2.5541691E-2,4.428606E-2,-2.9093858E-3,9.963242E-3,6.17847E-2,2.0950645E-2,4.7895387E-2,-1.358151E-2,-6.0424495E-2,9.947013E-3,2.0326799E-2,-6.354665E-2,5.8242526E-2,-3.6618132E-2,-2.3226995E-2,2.4346106E-2,7.4065804E-2,-1.5726825E-2,-2.695583E-2,4.3103546E-2,1.131584E-1,-5.869155E-3,-1.4409139E-2,1.1859208E-3,2.8130185E-2,4.1193157E-2,7.607297E-2,1.1248312E-1,2.9255645E-2,-2.7199265E-5,-2.4155464E-3,-1.3584666E-2,-3.007349E-3,9.9466555E-3,2.0382486E-2,-3.1854517E-3,1.998199E-3,2.9216828E-3,1.9947311E-3,-2.9066952E-3,3.9767087E-3,1.1178516E-3,-2.3969323E-3,2.378887E-3,2.7054825E-3,-2.9120434E-3,-1.3530015E-2,-2.911826E-3,-1.3549327E-2,1.0046392E-2,2.2854747E-3,-1.8122429E-3,-2.9164976E-3,1.6206456E-2,-1.6676501E-3,2.1139344E-3,5.1478864E-6,4.329122E-3,-3.2533047E-5,-8.330196E-4,1.2755235E-4,-1.5180871E-3,-7.344782E-4,2.9620833E-3,1.0129852E-3,6.798111E-3,4.265317E-3,-3.1282168E-4,1.2676761E-3,-9.1562135E-4,-3.4486465E-4,1.19287804E-4,-2.9529387E-3,1.3823661E-2,4.10344E-4,4.708639E-3,1.802766E-3,4.191737E-3,2.4334551E-4,5.2416306E-3,7.324564E-3,1.3686466E-4,3.2203477E-3],"categories":[],"categories_nodes":[],"categories_segments":[],"categories_sizes":[],"default_left":[0,0,0,0,0,0,0,0,0,0,0,0,0,0,0,0,0,0,0,0,0,0,0,0,0,0,0,0,0,0,0,0,0,0,0,0,0,0,0,0,0,0,0,0,0,0,0,0,0,0,0,0,0,0,0,0,0,0,0,0,0,0,0,0,0,0,0,0,0,0,0,0,0,0,0,0,0,0,0,0,0,0,0,0,0,0,0,0,0,0,0,0,0,0,0,0,0,0,0,0,0,0,0,0,0,0,0,0,0,0,0,0,0,0,0,0,0],"id":3,"left_children":[1,3,5,7,9,11,13,15,17,19,21,23,25,27,29,31,33,35,37,39,41,43,45,47,49,51,53,55,57,59,61,63,65,67,69,71,-1,-1,73,75,77,-1,79,-1,-1,81,83,85,87,89,91,93,95,97,99,101,103,105,107,109,111,113,115,-1,-1,-1,-1,-1,-1,-1,-1,-1,-1,-1,-1,-1,-1,-1,-1,-1,-1,-1,-1,-1,-1,-1,-1,-1,-1,-1,-1,-1,-1,-1,-1,-1,-1,-1,-1,-1,-1,-1,-1,-1,-1,-1,-1,-1,-1,-1,-1,-1,-1,-1,-1,-1,-1],"loss_changes":[9.383461E2,2.5412201E2,3.8689062E2,1.4800407E2,9.574829E1,2.7506226E1,2.6580908E2,1.147024E2,7.579361E0,1.04321594E2,1.6192886E2,6.1775513E0,7.3204803E0,4.7342834E1,3.270366E1,6.277764E1,1.6485898E2,1.0478714E1,1.2249279E1,6.0305054E1,1.2400536E1,2.5670166E0,8.907999E1,4.1255493E0,4.034958E-1,6.352646E0,5.534711E-1,1.6516685E1,1.4000731E1,5.3825455E0,1.3527481E1,2.7664862E1,1.3342812E1,3.1000824E0,7.032097E1,4.501114E0,0E0,0E0,8.629276E0,9.664853E1,1.7626953E-1,0E0,6.1111755E0,0E0,0E0,7.4988804E0,8.9760635E1,4.5238037E0,8.443727E1,1.1042017E-1,4.3679404E-1,1.268774E0,6.52993E0,5.889082E-2,2.3292828E-1,4.6021004E0,1.6398407E1,2.314307E1,1.0153182E2,6.0149574E0,3.058155E0,4.221405E0,2.0701394E0,0E0,0E0,0E0,0E0,0E0,0E0,0E0,0E0,0E0,0E0,0E0,0E0,0E0,0E0,0E0,0E0,0E0,0E0,0E0,0E0,0E0,0E0,0E0,0E0,0E0,0E0,0E0,0E0,0E0,0E0,0E0,0E0,0E0,0E0,0E0,0E0,0E0,0E0,0E0,0E0,0E0,0E0,0E0,0E0,0E0,0E0,0E0,0E0,0E0,0E0,0E0,0E0,0E0,0E0],"parents":[2147483647,0,0,1,1,2,2,3,3,4,4,5,5,6,6,7,7,8,8,9,9,10,10,11,11,12,12,13,13,14,14,15,15,16,16,17,17,18,18,19,19,20,20,21,21,22,22,23,23,24,24,25,25,26,26,27,27,28,28,29,29,30,30,31,31,32,32,33,33,34,34,35,35,38,38,39,39,40,40,42,42,45,45,46,46,47,47,48,48,49,49,50,50,51,51,52,52,53,53,54,54,55,55,56,56,57,57,58,58,59,59,60,60,61,61,62,62],"right_children":[2,4,6,8,10,12,14,16,18,20,22,24,26,28,30,32,34,36,38,40,42,44,46,48,50,52,54,56,58,60,62,64,66,68,70,72,-1,-1,74,76,78,-1,80,-1,-1,82,84,86,88,90,92,94,96,98,100,102,104,106,108,110,112,114,116,-1,-1,-1,-1,-1,-1,-1,-1,-1,-1,-1,-1,-1,-1,-1,-1,-1,-1,-1,-1,-1,-1,-1,-1,-1,-1,-1,-1,-1,-1,-1,-1,-1,-1,-1,-1,-1,-1,-1,-1,-1,-1,-1,-1,-1,-1,-1,-1,-1,-1,-1,-1,-1,-1],"split_conditions":[1.770274E0,1.2E1,4.02335E1,1.60934E0,1.524E1,2.3818232E1,1.0661877E3,1.524E1,1.524E1,2.54E-1,5.08E-1,2.574944E1,2.574944E1,2.494477E2,1.670495E3,2.54E-1,5.08E-1,2.54E-1,5.08E-1,1.60934E0,1.016E1,2.032E1,3.048E1,1.524E1,4.82802E1,1.1E1,4.82802E1,1.2E1,1.524E1,1.7E1,2E0,6.43736E-1,1.016E1,2.032E1,3.048E1,7E0,-2.9093858E-3,9.963242E-3,3.048E1,6.43736E-1,1E0,-1.358151E-2,5.08E-1,9.947013E-3,2.0326799E-2,7.62E-1,7.62E-1,2.54E-1,5.08E-1,1.5E1,1.0138842E2,1.524E1,1.9E1,1.5E1,3.1060263E1,1.3716E2,1.8E1,2.54E-1,5.08E-1,5E0,2E0,1.8E1,1.770274E0,-2.7199265E-5,-2.4155464E-3,-1.3584666E-2,-3.007349E-3,9.9466555E-3,2.0382486E-2,-3.1854517E-3,1.998199E-3,2.9216828E-3,1.9947311E-3,-2.9066952E-3,3.9767087E-3,1.1178516E-3,-2.3969323E-3,2.378887E-3,2.7054825E-3,-2.9120434E-3,-1.3530015E-2,-2.911826E-3,-1.3549327E-2,1.0046392E-2,2.2854747E-3,-1.8122429E-3,-2.9164976E-3,1.6206456E-2,-1.6676501E-3,2.1139344E-3,5.1478864E-6,4.329122E-3,-3.2533047E-5,-8.330196E-4,1.2755235E-4,-1.5180871E-3,-7.344782E-4,2.9620833E-3,1.0129852E-3,6.798111E-3,4.265317E-3,-3.1282168E-4,1.2676761E-3,-9.1562135E-4,-3.4486465E-4,1.19287804E-4,-2.9529387E-3,1.3823661E-2,4.10344E-4,4.708639E-3,1.802766E-3,4.191737E-3,2.4334551E-4,5.2416306E-3,7.324564E-3,1.3686466E-4,3.2203477E-3],"split_indices":[1,5,1,1,7,1,1,7,7,2,2,3,3,1,1,2,2,2,2,1,7,7,7,7,3,5,3,5,7,5,4,1,7,7,7,5,0,0,7,1,4,0,2,0,0,2,2,2,2,5,3,7,5,5,8,7,5,2,2,5,4,5,3,0,0,0,0,0,0,0,0,0,0,0,0,0,0,0,0,0,0,0,0,0,0,0,0,0,0,0,0,0,0,0,0,0,0,0,0,0,0,0,0,0,0,0,0,0,0,0,0,0,0,0,0,0,0],"split_type":[0,0,0,0,0,0,0,0,0,0,0,0,0,0,0,0,0,0,0,0,0,0,0,0,0,0,0,0,0,0,0,0,0,0,0,0,0,0,0,0,0,0,0,0,0,0,0,0,0,0,0,0,0,0,0,0,0,0,0,0,0,0,0,0,0,0,0,0,0,0,0,0,0,0,0,0,0,0,0,0,0,0,0,0,0,0,0,0,0,0,0,0,0,0,0,0,0,0,0,0,0,0,0,0,0,0,0,0,0,0,0,0,0,0,0,0,0],"sum_hessian":[4.471721E6,2.330658E6,2.141063E6,1.164428E6,1.16623E6,8.14374E5,1.326689E6,1.08611E6,7.8318E4,1.101787E6,6.4443E4,5.83165E5,2.31209E5,1.280544E6,4.6145E4,1.025587E6,6.0523E4,7.3496E4,4.822E3,1.088155E6,1.3632E4,7.424E3,5.7019E4,5.82446E5,7.19E2,2.30663E5,5.46E2,9.39857E5,3.40687E5,2.7642E4,1.8503E4,1.009536E6,1.6051E4,5.895E3,5.4628E4,7.2485E4,1.011E3,7.71E2,4.051E3,9.97548E5,9.0607E4,2.83E2,1.3349E4,7.364E3,6E1,6.821E3,5.0198E4,5.58444E5,2.4002E4,2.53E2,4.66E2,7.4352E4,1.56311E5,1.62E2,3.84E2,3.8058E5,5.59277E5,3.20167E5,2.052E4,2.2109E4,5.533E3,1.6283E4,2.22E3,9.97263E5,1.2273E4,3.03E2,1.5748E4,5.823E3,7.2E1,7.599E3,4.7029E4,1.7167E4,5.5318E4,5.22E2,3.529E3,9.77591E5,1.9957E4,8.6209E4,4.398E3,1.3213E4,1.36E2,6.652E3,1.69E2,4.052E3,4.6146E4,5.49008E5,9.436E3,6.79E2,2.3323E4,1.45E2,1.08E2,3.99E2,6.7E1,7.0739E4,3.613E3,1.2234E5,3.3971E4,9.4E1,6.8E1,2.09E2,1.75E2,3.75918E5,4.662E3,3.68037E5,1.9124E5,3.13916E5,6.251E3,1.523E3,1.8997E4,1.953E3,2.0156E4,4.989E3,5.44E2,1.3296E4,2.987E3,1.266E3,9.54E2],"tree_param":{"num_deleted":"0","num_feature":"9","num_nodes":"117","size_leaf_vector":"1"}},{"base_weights":[-6.5297965E-5,1.3115406E-2,-1.4417073E-2,3.2034882E-3,2.3006499E-2,-3.0342681E-2,-4.2928555E-3,3.3268187E-4,4.3050926E-2,2.0914484E-2,5.887798E-2,-3.423133E-2,-2.1224922E-2,-6.870686E-3,6.635524E-2,-2.0074914E-3,3.9900314E-2,4.0661067E-2,8.018772E-2,2.195624E-2,-6.170941E-2,1.9103956E-1,4.1738223E-2,-3.433754E-2,5.383321E-2,-2.1501413E-2,9.7744845E-2,-1.0366985E-2,2.576007E-3,4.5509536E-2,9.778811E-2,-1.0796342E-3,-6.0838014E-2,1.9138858E-1,2.342757E-2,4.198079E-2,-2.7640217E-3,9.466225E-3,5.9671912E-2,1.981182E-2,4.55754E-2,-1.2905921E-2,-5.745158E-2,9.44972E-3,1.9387249E-2,-6.0246907E-2,5.5546984E-2,-3.4845702E-2,-2.2512829E-2,2.4599265E-2,6.971325E-2,-1.4427256E-2,-2.4898442E-2,5.7631228E-2,1.1492136E-1,-5.4810485E-3,-1.3689613E-2,1.0382378E-3,2.665776E-2,3.857102E-2,7.299695E-2,2.8572798E-2,1.0487156E-1,-2.6356927E-5,-2.3079633E-3,-1.29071E-2,-2.8522701E-3,9.449424E-3,1.9369744E-2,-3.0663777E-3,1.8497866E-3,2.7721138E-3,1.8879678E-3,-2.7615135E-3,3.8280431E-3,1.057499E-3,-2.2643341E-3,2.2554044E-3,2.7375573E-3,-2.7664534E-3,-1.28611345E-2,-2.7662541E-3,-1.2873537E-2,9.529526E-3,2.192606E-3,-1.7245105E-3,-2.7706656E-3,1.5424447E-2,-1.6145731E-3,1.9322115E-3,-1.2821886E-3,5.9461836E-3,2.5356284E-3,-7.764243E-4,3.5394562E-4,-1.4106223E-3,-6.5368874E-4,3.7922368E-3,1.8727019E-3,6.4632664E-3,2.1807433E-3,-2.8967144E-4,1.7915054E-3,-8.6914666E-4,-3.279864E-4,1.0904212E-4,-2.8172478E-3,1.3037342E-2,4.0561633E-4,4.6321815E-3,1.6686068E-3,3.9738384E-3,5.076547E-4,1.1818805E-3,8.550941E-3,4.6116333E-3,5.9069926E-3],"categories":[],"categories_nodes":[],"categories_segments":[],"categories_sizes":[],"default_left":[0,0,0,0,0,0,0,0,0,0,0,0,0,0,0,0,0,0,0,0,0,0,0,0,0,0,0,0,0,0,0,0,0,0,0,0,0,0,0,0,0,0,0,0,0,0,0,0,0,0,0,0,0,0,0,0,0,0,0,0,0,0,0,0,0,0,0,0,0,0,0,0,0,0,0,0,0,0,0,0,0,0,0,0,0,0,0,0,0,0,0,0,0,0,0,0,0,0,0,0,0,0,0,0,0,0,0,0,0,0,0,0,0,0,0,0,0],"id":4,"left_children":[1,3,5,7,9,11,13,15,17,19,21,23,25,27,29,31,33,35,37,39,41,43,45,47,49,51,53,55,57,59,61,63,65,67,69,71,-1,-1,73,75,77,-1,79,-1,-1,81,83,85,87,89,91,93,95,97,99,101,103,105,107,109,111,113,115,-1,-1,-1,-1,-1,-1,-1,-1,-1,-1,-1,-1,-1,-1,-1,-1,-1,-1,-1,-1,-1,-1,-1,-1,-1,-1,-1,-1,-1,-1,-1,-1,-1,-1,-1,-1,-1,-1,-1,-1,-1,-1,-1,-1,-1,-1,-1,-1,-1,-1,-1,-1,-1,-1],"loss_changes":[8.4596655E2,2.2854468E2,3.4519107E2,1.3319475E2,8.755963E1,2.9500916E1,2.3836884E2,1.0056773E2,6.9413757E0,9.489816E1,1.4563872E2,5.4573975E0,8.185272E0,4.17079E1,3.0187057E1,5.5975647E1,1.513407E2,9.311012E0,1.0579315E1,5.514496E1,1.1465572E1,2.8960571E0,8.0158905E1,3.499939E0,3.2464314E-1,5.9641113E0,3.9093733E-1,1.49624405E1,1.2632315E1,5.2813263E0,9.004486E0,2.5143684E1,1.1899673E1,2.724945E0,6.290799E1,4.1191025E0,0E0,0E0,7.733551E0,8.695224E1,3.8612366E-1,0E0,5.683708E0,0E0,0E0,6.5748806E0,7.9162796E1,4.0822754E0,7.771772E1,1.7670071E-1,4.1940856E-1,1.9071331E0,6.570389E0,6.1471343E-2,4.0655756E-1,4.8146124E0,1.4446106E1,2.1023567E1,8.888566E1,6.2163467E0,2.272684E0,1.1959751E0,2.7839355E0,0E0,0E0,0E0,0E0,0E0,0E0,0E0,0E0,0E0,0E0,0E0,0E0,0E0,0E0,0E0,0E0,0E0,0E0,0E0,0E0,0E0,0E0,0E0,0E0,0E0,0E0,0E0,0E0,0E0,0E0,0E0,0E0,0E0,0E0,0E0,0E0,0E0,0E0,0E0,0E0,0E0,0E0,0E0,0E0,0E0,0E0,0E0,0E0,0E0,0E0,0E0,0E0,0E0,0E0],"parents":[2147483647,0,0,1,1,2,2,3,3,4,4,5,5,6,6,7,7,8,8,9,9,10,10,11,11,12,12,13,13,14,14,15,15,16,16,17,17,18,18,19,19,20,20,21,21,22,22,23,23,24,24,25,25,26,26,27,27,28,28,29,29,30,30,31,31,32,32,33,33,34,34,35,35,38,38,39,39,40,40,42,42,45,45,46,46,47,47,48,48,49,49,50,50,51,51,52,52,53,53,54,54,55,55,56,56,57,57,58,58,59,59,60,60,61,61,62,62],"right_children":[2,4,6,8,10,12,14,16,18,20,22,24,26,28,30,32,34,36,38,40,42,44,46,48,50,52,54,56,58,60,62,64,66,68,70,72,-1,-1,74,76,78,-1,80,-1,-1,82,84,86,88,90,92,94,96,98,100,102,104,106,108,110,112,114,116,-1,-1,-1,-1,-1,-1,-1,-1,-1,-1,-1,-1,-1,-1,-1,-1,-1,-1,-1,-1,-1,-1,-1,-1,-1,-1,-1,-1,-1,-1,-1,-1,-1,-1,-1,-1,-1,-1,-1,-1,-1,-1,-1,-1,-1,-1,-1,-1,-1,-1,-1,-1,-1,-1],"split_conditions":[1.770274E0,1.2E1,4.1681908E1,1.60934E0,1.524E1,2.3818232E1,1.0661877E3,1.524E1,1.524E1,2.54E-1,5.08E-1,3.057746E1,2.574944E1,2.494477E2,1.670495E3,2.54E-1,5.08E-1,2.54E-1,5.08E-1,1.60934E0,1.016E1,2.032E1,3.048E1,1.524E1,4.82802E1,1.1E1,4.82802E1,1.2E1,1.524E1,1.7E1,1.770274E0,6.43736E-1,1.016E1,2.032E1,3.048E1,7E0,-2.7640217E-3,9.466225E-3,3.048E1,6.43736E-1,1.931208E0,-1.2905921E-2,5.08E-1,9.44972E-3,1.9387249E-2,7.62E-1,7.62E-1,2.54E-1,5.08E-1,3.540548E1,5.471756E1,1.524E1,1.9E1,1.5E1,3.7980423E1,1.9812E2,1.8E1,2.54E-1,5.08E-1,5E0,3.2743633E3,1.8288E2,2.3433599E3,-2.6356927E-5,-2.3079633E-3,-1.29071E-2,-2.8522701E-3,9.449424E-3,1.9369744E-2,-3.0663777E-3,1.8497866E-3,2.7721138E-3,1.8879678E-3,-2.7615135E-3,3.8280431E-3,1.057499E-3,-2.2643341E-3,2.2554044E-3,2.7375573E-3,-2.7664534E-3,-1.28611345E-2,-2.7662541E-3,-1.2873537E-2,9.529526E-3,2.192606E-3,-1.7245105E-3,-2.7706656E-3,1.5424447E-2,-1.6145731E-3,1.9322115E-3,-1.2821886E-3,5.9461836E-3,2.5356284E-3,-7.764243E-4,3.5394562E-4,-1.4106223E-3,-6.5368874E-4,3.7922368E-3,1.8727019E-3,6.4632664E-3,2.1807433E-3,-2.8967144E-4,1.7915054E-3,-8.6914666E-4,-3.279864E-4,1.0904212E-4,-2.8172478E-3,1.3037342E-2,4.0561633E-4,4.6321815E-3,1.6686068E-3,3.9738384E-3,5.076547E-4,1.1818805E-3,8.550941E-3,4.6116333E-3,5.9069926E-3],"split_indices":[1,5,1,1,7,1,1,7,7,2,2,3,3,1,1,2,2,2,2,1,7,7,7,7,3,5,3,5,7,5,3,1,7,7,7,5,0,0,7,1,8,0,2,0,0,2,2,2,2,3,3,7,5,5,1,7,5,2,2,5,8,7,1,0,0,0,0,0,0,0,0,0,0,0,0,0,0,0,0,0,0,0,0,0,0,0,0,0,0,0,0,0,0,0,0,0,0,0,0,0,0,0,0,0,0,0,0,0,0,0,0,0,0,0,0,0,0],"split_type":[0,0,0,0,0,0,0,0,0,0,0,0,0,0,0,0,0,0,0,0,0,0,0,0,0,0,0,0,0,0,0,0,0,0,0,0,0,0,0,0,0,0,0,0,0,0,0,0,0,0,0,0,0,0,0,0,0,0,0,0,0,0,0,0,0,0,0,0,0,0,0,0,0,0,0,0,0,0,0,0,0,0,0,0,0,0,0,0,0,0,0,0,0,0,0,0,0,0,0,0,0,0,0,0,0,0,0,0,0,0,0,0,0,0,0,0,0],"sum_hessian":[4.472072E6,2.331144E6,2.140928E6,1.164347E6,1.166797E6,8.32067E5,1.308861E6,1.0861E6,7.8247E4,1.102501E6,6.4296E4,5.83294E5,2.48773E5,1.262785E6,4.6076E4,1.025452E6,6.0648E4,7.3518E4,4.729E3,1.088774E6,1.3727E4,7.38E3,5.6916E4,5.82592E5,7.02E2,2.48197E5,5.76E2,9.21668E5,3.41117E5,2.7705E4,1.8371E4,1.009531E6,1.5921E4,5.947E3,5.4701E4,7.2521E4,9.97E2,7.47E2,3.982E3,9.98152E5,9.0622E4,2.9E2,1.3437E4,7.306E3,7.4E1,6.787E3,5.0129E4,5.58585E5,2.4007E4,2.48E2,4.54E2,8.0521E4,1.67676E5,1.74E2,4.02E2,3.7307E5,5.48598E5,3.20643E5,2.0474E4,2.2123E4,5.582E3,1.706E3,1.6665E4,9.97309E5,1.2222E4,2.99E2,1.5622E4,5.877E3,7E1,7.548E3,4.7153E4,1.731E4,5.5211E4,5.1E2,3.472E3,9.78048E5,2.0104E4,8.6236E4,4.386E3,1.3297E4,1.4E2,6.623E3,1.64E2,3.994E3,4.6135E4,5.49097E5,9.488E3,6.88E2,2.3319E4,1.94E2,5.4E1,1.25E2,3.29E2,7.6599E4,3.922E3,1.30969E5,3.6707E4,9E1,8.4E1,3.34E2,6.8E1,3.70271E5,2.799E3,3.61393E5,1.87205E5,3.14384E5,6.259E3,1.502E3,1.8972E4,1.939E3,2.0184E4,5.06E3,5.22E2,1.65E3,5.6E1,8.539E3,8.126E3],"tree_param":{"num_deleted":"0","num_feature":"9","num_nodes":"117","size_leaf_vector":"1"}},{"base_weights":[2.9293733E-6,-6.0455125E-2,2.2414589E-1,-2.7282107E-1,-5.782608E-2,1.971814E-1,4.1373292E-1,-1.36693E-2,-2.6194522E-1,-5.926519E-2,-5.6588024E-2,1.977487E-1,1.9094124E-1,2.0710275E-2,2.0322395E-2,-1.2672235E-2,-1.3793046E-2,-5.9043262E-2,-6.2495798E-2,-5.5048928E-2,-5.7639148E-2,1.9782576E-1,9.410988E-3,1.8147372E-1,1.9416021E-1,-5.9159257E-2,-5.382002E-2,-3.1368646E-3,-5.8795743E-2,-5.468815E-2,-5.6000136E-2,-5.746725E-2,-6.4316094E-2,1.9740598E-1,1.9970874E-1,1.7931552E-1,1.9097555E-1,1.8882689E-1,1.9532357E-1,-2.9519394E-3,-3.1192435E-3,-2.6764884E-3,-3.1213348E-3,-2.627637E-3,-3.2154638E-3,-2.7340772E-3,-3.1418472E-3,-2.7993543E-3,-3.3284072E-3,-2.857781E-3,-2.918553E-3,-3.1370197E-3,-3.3832223E-3,9.888123E-3,9.721097E-3,9.995907E-3,9.700261E-3,8.9778155E-3,8.33736E-3,9.995024E-3,8.832078E-3,9.319609E-3,9.939004E-3,9.730581E-3,9.924301E-3],"categories":[],"categories_nodes":[],"categories_segments":[],"categories_sizes":[],"default_left":[0,0,0,0,0,0,0,0,0,0,0,0,0,0,0,0,0,0,0,0,0,0,0,0,0,0,0,0,0,0,0,0,0,0,0,0,0,0,0,0,0,0,0,0,0,0,0,0,0,0,0,0,0,0,0,0,0,0,0,0,0,0,0,0,0],"id":5,"left_children":[1,3,5,7,9,11,13,-1,15,17,19,21,23,-1,-1,-1,-1,25,27,29,31,33,-1,35,37,39,41,-1,43,45,47,49,51,53,55,57,59,61,63,-1,-1,-1,-1,-1,-1,-1,-1,-1,-1,-1,-1,-1,-1,-1,-1,-1,-1,-1,-1,-1,-1,-1,-1,-1,-1],"loss_changes":[6.0583887E4,1.965831E3,4.855E3,1.9311523E-1,6.192383E0,2.90625E0,2.4023438E-1,0E0,1.8441772E-1,1.1494141E0,3.0219727E0,5.1953125E-1,2.0773926E0,0E0,0E0,0E0,0E0,9.086914E-1,8.868408E-2,2.5732422E-1,1.2712402E0,5.605469E-1,0E0,3.2678223E-1,2.841797E-1,5.683594E-1,7.836151E-2,0E0,2.1516037E-1,2.6245117E-2,2.5024414E-2,3.017578E-1,1.4281464E-1,6.191406E-1,1.2597656E-1,1.3549805E-2,3.7957E-1,1.8811035E-1,5.6762695E-2,0E0,0E0,0E0,0E0,0E0,0E0,0E0,0E0,0E0,0E0,0E0,0E0,0E0,0E0,0E0,0E0,0E0,0E0,0E0,0E0,0E0,0E0,0E0,0E0,0E0,0E0],"parents":[2147483647,0,0,1,1,2,2,3,3,4,4,5,5,6,6,8,8,9,9,10,10,11,11,12,12,17,17,18,18,19,19,20,20,21,21,23,23,24,24,25,25,26,26,28,28,29,29,30,30,31,31,32,32,33,33,34,34,35,35,36,36,37,37,38,38],"right_children":[2,4,6,8,10,12,14,-1,16,18,20,22,24,-1,-1,-1,-1,26,28,30,32,34,-1,36,38,40,42,-1,44,46,48,50,52,54,56,58,60,62,64,-1,-1,-1,-1,-1,-1,-1,-1,-1,-1,-1,-1,-1,-1,-1,-1,-1,-1,-1,-1,-1,-1,-1,-1,-1,-1],"split_conditions":[6E1,4E1,8E1,2.54E-1,1.770274E0,2.54E-1,1.0806718E3,-1.36693E-2,1.524E0,1.60934E0,4.02335E1,1.670495E3,5.08E-1,2.0710275E-2,2.0322395E-2,-1.2672235E-2,-1.3793046E-2,6.43736E-1,2.54E-1,2.3818232E1,1.0661877E3,1.770274E0,9.410988E-3,2.3818232E1,7.62E-1,7.62E-1,7.62E-1,-3.1368646E-3,7.62E-1,2.574944E1,2.574944E1,2.494477E2,1.670495E3,1.60934E0,1.0661877E3,1.770274E0,2.494477E2,1.770274E0,1.770274E0,-2.9519394E-3,-3.1192435E-3,-2.6764884E-3,-3.1213348E-3,-2.627637E-3,-3.2154638E-3,-2.7340772E-3,-3.1418472E-3,-2.7993543E-3,-3.3284072E-3,-2.857781E-3,-2.918553E-3,-3.1370197E-3,-3.3832223E-3,9.888123E-3,9.721097E-3,9.995907E-3,9.700261E-3,8.9778155E-3,8.33736E-3,9.995024E-3,8.832078E-3,9.319609E-3,9.939004E-3,9.730581E-3,9.924301E-3],"split_indices":[0,0,0,2,1,2,8,0,2,1,1,1,2,0,0,0,0,1,2,1,1,1,0,1,2,2,2,0,2,3,3,1,1,1,1,1,1,1,1,0,0,0,0,0,0,0,0,0,0,0,0,0,0,0,0,0,0,0,0,0,0,0,0,0,0],"split_type":[0,0,0,0,0,0,0,0,0,0,0,0,0,0,0,0,0,0,0,0,0,0,0,0,0,0,0,0,0,0,0,0,0,0,0,0,0,0,0,0,0,0,0,0,0,0,0,0,0,0,0,0,0,0,0,0,0,0,0,0,0,0,0,0,0],"sum_hessian":[4.470722E6,3.521003E6,9.49719E5,4.3055E4,3.477948E6,8.31464E5,1.18255E5,4.0906E4,2.149E3,1.608357E6,1.869591E6,7.62145E5,6.9319E4,1.10999E5,7.256E3,1.346E3,8.03E2,1.504992E6,1.03365E5,7.58711E5,1.11088E6,7.56012E5,6.133E3,1.7603E4,5.1716E4,1.472287E6,3.2705E4,9.7017E4,6.348E3,5.50118E5,2.08593E5,1.083007E6,2.7873E4,6.18281E5,1.37731E5,1.4361E4,3.242E3,9.29E3,4.2426E4,1.4193E6,5.2987E4,3.1645E4,1.06E3,2.982E3,3.366E3,5.4968E5,4.38E2,2.08342E5,2.51E2,8.05382E5,2.77625E5,1.8967E4,8.906E3,5.52247E5,6.6034E4,1.32821E5,4.91E3,1.4078E4,2.83E2,1.99E3,1.252E3,7.48E3,1.81E3,3.4681E4,7.745E3],"tree_param":{"num_deleted":"0","num_feature":"9","num_nodes":"65","size_leaf_vector":"1"}},{"base_weights":[3.4932844E-5,-5.742748E-2,2.1294892E-1,-2.592005E-1,-5.493421E-2,1.8732563E-1,3.9305627E-1,-1.298578E-2,-2.4919719E-1,-5.6300838E-2,-5.375864E-2,1.8786006E-1,1.8143329E-1,3.9345634E-1,1.9263288E-2,-1.20356E-2,-1.310677E-2,-5.609E-2,-5.9370033E-2,-5.229679E-2,-5.475592E-2,1.8793416E-1,8.941346E-3,1.7240481E-1,1.8445902E-1,1.9690203E-2,3.8859493E-1,-5.62009E-2,-5.1130977E-2,-2.9798679E-3,-5.587995E-2,-5.1953934E-2,-5.319891E-2,-5.459374E-2,-6.1086554E-2,1.8753542E-1,1.8972075E-1,1.7033759E-1,1.8140456E-1,1.7939164E-1,1.8555689E-1,3.7872097E-1,1.964018E-2,-2.8043452E-3,-2.963309E-3,-2.5426715E-3,-2.9657392E-3,-2.496293E-3,-3.055604E-3,-2.597383E-3,-2.9875312E-3,-2.659312E-3,-3.1578154E-3,-2.7148772E-3,-2.772604E-3,-2.9793736E-3,-3.212517E-3,9.393659E-3,9.235067E-3,9.495942E-3,9.216177E-3,8.528947E-3,7.923094E-3,9.495375E-3,8.386746E-3,8.855709E-3,9.443596E-3,9.244138E-3,9.428164E-3,1.7910108E-2,1.9245323E-2],"categories":[],"categories_nodes":[],"categories_segments":[],"categories_sizes":[],"default_left":[0,0,0,0,0,0,0,0,0,0,0,0,0,0,0,0,0,0,0,0,0,0,0,0,0,0,0,0,0,0,0,0,0,0,0,0,0,0,0,0,0,0,0,0,0,0,0,0,0,0,0,0,0,0,0,0,0,0,0,0,0,0,0,0,0,0,0,0,0,0,0],"id":6,"left_children":[1,3,5,7,9,11,13,-1,15,17,19,21,23,25,-1,-1,-1,27,29,31,33,35,-1,37,39,-1,41,43,45,-1,47,49,51,53,55,57,59,61,63,65,67,69,-1,-1,-1,-1,-1,-1,-1,-1,-1,-1,-1,-1,-1,-1,-1,-1,-1,-1,-1,-1,-1,-1,-1,-1,-1,-1,-1,-1,-1],"loss_changes":[5.4697613E4,1.7711045E3,4.3848477E3,1.5649414E-1,5.584961E0,2.5839844E0,2.1679688E-1,0E0,1.7062378E-1,1.0375977E0,2.7226562E0,4.765625E-1,1.8586426E0,3.7109375E-2,0E0,0E0,0E0,8.2421875E-1,7.867432E-2,2.3168945E-1,1.1376953E0,5.0390625E-1,0E0,2.925415E-1,2.5500488E-1,0E0,1.665039E-1,5.1123047E-1,7.1762085E-2,0E0,1.9433212E-1,2.368164E-2,2.2949219E-2,2.722168E-1,1.2779236E-1,5.566406E-1,1.1230469E-1,1.3549805E-2,3.4381104E-1,1.6641235E-1,5.13916E-2,1.5338135E-1,0E0,0E0,0E0,0E0,0E0,0E0,0E0,0E0,0E0,0E0,0E0,0E0,0E0,0E0,0E0,0E0,0E0,0E0,0E0,0E0,0E0,0E0,0E0,0E0,0E0,0E0,0E0,0E0,0E0],"parents":[2147483647,0,0,1,1,2,2,3,3,4,4,5,5,6,6,8,8,9,9,10,10,11,11,12,12,13,13,17,17,18,18,19,19,20,20,21,21,23,23,24,24,26,26,27,27,28,28,30,30,31,31,32,32,33,33,34,34,35,35,36,36,37,37,38,38,39,39,40,40,41,41],"right_children":[2,4,6,8,10,12,14,-1,16,18,20,22,24,26,-1,-1,-1,28,30,32,34,36,-1,38,40,-1,42,44,46,-1,48,50,52,54,56,58,60,62,64,66,68,70,-1,-1,-1,-1,-1,-1,-1,-1,-1,-1,-1,-1,-1,-1,-1,-1,-1,-1,-1,-1,-1,-1,-1,-1,-1,-1,-1,-1,-1],"split_conditions":[6E1,4E1,8E1,2.54E-1,1.770274E0,2.54E-1,1.0661877E3,-1.298578E-2,1.524E0,1.60934E0,4.02335E1,1.670495E3,5.08E-1,2.54E-1,1.9263288E-2,-1.20356E-2,-1.310677E-2,6.43736E-1,2.54E-1,2.3818232E1,1.0661877E3,1.770274E0,8.941346E-3,2.3818232E1,7.62E-1,1.9690203E-2,5.08E-1,7.62E-1,7.62E-1,-2.9798679E-3,7.62E-1,2.574944E1,2.574944E1,2.494477E2,1.670495E3,1.60934E0,1.0661877E3,1.770274E0,2.494477E2,1.770274E0,1.770274E0,2.3818232E1,1.964018E-2,-2.8043452E-3,-2.963309E-3,-2.5426715E-3,-2.9657392E-3,-2.496293E-3,-3.055604E-3,-2.597383E-3,-2.9875312E-3,-2.659312E-3,-3.1578154E-3,-2.7148772E-3,-2.772604E-3,-2.9793736E-3,-3.212517E-3,9.393659E-3,9.235067E-3,9.495942E-3,9.216177E-3,8.528947E-3,7.923094E-3,9.495375E-3,8.386746E-3,8.855709E-3,9.443596E-3,9.244138E-3,9.428164E-3,1.7910108E-2,1.9245323E-2],"split_indices":[0,0,0,2,1,2,1,0,2,1,1,1,2,2,0,0,0,1,2,1,1,1,0,1,2,0,2,2,2,0,2,3,3,1,1,1,1,1,1,1,1,1,0,0,0,0,0,0,0,0,0,0,0,0,0,0,0,0,0,0,0,0,0,0,0,0,0,0,0,0,0],"split_type":[0,0,0,0,0,0,0,0,0,0,0,0,0,0,0,0,0,0,0,0,0,0,0,0,0,0,0,0,0,0,0,0,0,0,0,0,0,0,0,0,0,0,0,0,0,0,0,0,0,0,0,0,0,0,0,0,0,0,0,0,0,0,0,0,0,0,0,0,0,0,0],"sum_hessian":[4.470747E6,3.520591E6,9.50156E5,4.2971E4,3.47762E6,8.31818E5,1.18338E5,4.0843E4,2.128E3,1.60811E6,1.86951E6,7.6262E5,6.9198E4,1.12511E5,5.827E3,1.297E3,8.31E2,1.504761E6,1.03349E5,7.58185E5,1.111325E6,7.56394E5,6.226E3,1.7384E4,5.1814E4,1.04926E5,7.585E3,1.471837E6,3.2924E4,9.7014E4,6.335E3,5.49428E5,2.08757E5,1.083575E6,2.775E4,6.18465E5,1.37929E5,1.4153E4,3.231E3,9.256E3,4.2558E4,2.294E3,5.291E3,1.419084E6,5.2753E4,3.1851E4,1.073E3,2.968E3,3.367E3,5.48994E5,4.34E2,2.08498E5,2.59E2,8.05636E5,2.77939E5,1.8842E4,8.908E3,5.52547E5,6.5918E4,1.33013E5,4.916E3,1.3858E4,2.95E2,1.984E3,1.247E3,7.479E3,1.777E3,3.4814E4,7.744E3,5.45E2,1.749E3],"tree_param":{"num_deleted":"0","num_feature":"9","num_nodes":"71","size_leaf_vector":"1"}},{"base_weights":[-1.4525132E-5,-5.45616E-2,2.0226201E-1,-2.4622157E-1,-5.2187763E-2,1.7795728E-1,3.734051E-1,-1.233631E-2,-2.3666944E-1,-5.346557E-2,-5.1098127E-2,1.7846887E-1,1.7234956E-1,1.8691387E-2,1.834171E-2,-1.1435413E-2,-1.24516515E-2,-5.252561E-2,-5.450375E-2,-4.9755823E-2,-5.1987275E-2,1.7935364E-1,1.7779107E-1,1.6379184E-1,1.7523777E-1,-5.233676E-2,-5.597847E-2,-5.4629587E-2,-5.2450188E-2,-4.948246E-2,-5.0423086E-2,-5.183186E-2,-5.5946797E-2,1.7943308E-1,8.612624E-3,1.7729811E-1,1.7993717E-1,8.097647E-3,1.7179152E-1,1.7048152E-1,1.7627299E-1,-2.6100557E-3,-2.8004365E-3,-2.803265E-3,-2.607658E-3,-2.7245965E-3,-2.8155905E-3,-2.3417594E-3,-2.8314993E-3,-2.468547E-3,-2.536986E-3,-2.5516204E-3,-2.5071364E-3,-2.5768452E-3,-2.6283378E-3,-2.9219585E-3,-2.6699898E-3,8.987145E-3,8.929735E-3,8.875911E-3,8.771943E-3,9.031777E-3,8.615545E-3,8.860919E-3,8.078518E-3,8.848783E-3,8.2383985E-3,8.782283E-3,8.955535E-3],"categories":[],"categories_nodes":[],"categories_segments":[],"categories_sizes":[],"default_left":[0,0,0,0,0,0,0,0,0,0,0,0,0,0,0,0,0,0,0,0,0,0,0,0,0,0,0,0,0,0,0,0,0,0,0,0,0,0,0,0,0,0,0,0,0,0,0,0,0,0,0,0,0,0,0,0,0,0,0,0,0,0,0,0,0,0,0,0,0],"id":7,"left_children":[1,3,5,7,9,11,13,-1,15,17,19,21,23,-1,-1,-1,-1,25,27,29,31,33,35,37,39,41,43,45,47,49,51,53,55,57,-1,59,61,-1,63,65,67,-1,-1,-1,-1,-1,-1,-1,-1,-1,-1,-1,-1,-1,-1,-1,-1,-1,-1,-1,-1,-1,-1,-1,-1,-1,-1,-1,-1],"loss_changes":[4.9325426E4,1.6019287E3,3.949418E3,1.4916992E-1,4.8398438E0,2.3554688E0,1.9140625E-1,0E0,1.5821075E-1,1.5595703E0,2.237793E0,4.2578125E-1,1.6901855E0,0E0,0E0,0E0,0E0,5.45166E-1,1.9335938E-1,1.3391113E-1,6.9189453E-1,1.5625E-1,4.2285156E-1,2.305603E-1,2.2583008E-1,3.9379883E-1,1.1550903E-2,1.6308594E-1,1.0286255E0,7.1899414E-2,3.4606934E-2,2.3291016E-1,2.6753235E-1,5.2734375E-2,0E0,1.1328125E-1,3.9770508E-1,0E0,1.5252686E-1,3.166809E-1,4.4433594E-2,0E0,0E0,0E0,0E0,0E0,0E0,0E0,0E0,0E0,0E0,0E0,0E0,0E0,0E0,0E0,0E0,0E0,0E0,0E0,0E0,0E0,0E0,0E0,0E0,0E0,0E0,0E0,0E0],"parents":[2147483647,0,0,1,1,2,2,3,3,4,4,5,5,6,6,8,8,9,9,10,10,11,11,12,12,17,17,18,18,19,19,20,20,21,21,22,22,23,23,24,24,25,25,26,26,27,27,28,28,29,29,30,30,31,31,32,32,33,33,35,35,36,36,38,38,39,39,40,40],"right_children":[2,4,6,8,10,12,14,-1,16,18,20,22,24,-1,-1,-1,-1,26,28,30,32,34,36,38,40,42,44,46,48,50,52,54,56,58,-1,60,62,-1,64,66,68,-1,-1,-1,-1,-1,-1,-1,-1,-1,-1,-1,-1,-1,-1,-1,-1,-1,-1,-1,-1,-1,-1,-1,-1,-1,-1,-1,-1],"split_conditions":[6E1,4E1,8E1,2.54E-1,1.931208E0,2.54E-1,1.0806718E3,-1.233631E-2,1.524E0,1.2E1,4.1520973E1,1.2E1,5.08E-1,1.8691387E-2,1.834171E-2,-1.1435413E-2,-1.24516515E-2,1.60934E0,2.54E-1,2.3818232E1,1.0806718E3,1.4883176E3,3.379614E0,3.701482E1,7.62E-1,7.62E-1,2.54E-1,1.60934E0,7.62E-1,1E0,1.1E1,2.489649E2,1E0,1.60934E0,8.612624E-3,1.60934E0,1.0806718E3,8.097647E-3,5.008266E2,1.2E1,4.988954E0,-2.6100557E-3,-2.8004365E-3,-2.803265E-3,-2.607658E-3,-2.7245965E-3,-2.8155905E-3,-2.3417594E-3,-2.8314993E-3,-2.468547E-3,-2.536986E-3,-2.5516204E-3,-2.5071364E-3,-2.5768452E-3,-2.6283378E-3,-2.9219585E-3,-2.6699898E-3,8.987145E-3,8.929735E-3,8.875911E-3,8.771943E-3,9.031777E-3,8.615545E-3,8.860919E-3,8.078518E-3,8.848783E-3,8.2383985E-3,8.782283E-3,8.955535E-3],"split_indices":[0,0,0,2,8,2,8,0,2,5,8,5,2,0,0,0,0,8,2,8,8,8,8,8,2,2,2,8,2,4,5,8,4,8,0,8,8,0,8,5,8,0,0,0,0,0,0,0,0,0,0,0,0,0,0,0,0,0,0,0,0,0,0,0,0,0,0,0,0],"split_type":[0,0,0,0,0,0,0,0,0,0,0,0,0,0,0,0,0,0,0,0,0,0,0,0,0,0,0,0,0,0,0,0,0,0,0,0,0,0,0,0,0,0,0,0,0,0,0,0,0,0,0,0,0,0,0,0,0,0,0,0,0,0,0,0,0,0,0,0,0],"sum_hessian":[4.470475E6,3.520986E6,9.49489E5,4.3075E4,3.477911E6,8.31418E5,1.18071E5,4.089E4,2.185E3,1.600718E6,1.877193E6,7.61882E5,6.9536E4,1.10883E5,7.188E3,1.341E3,8.44E2,8.40127E5,7.60591E5,7.48014E5,1.129179E6,3.3037E5,4.31512E5,1.7561E4,5.1975E4,7.96575E5,4.3552E4,7.16651E5,4.394E4,5.30683E5,2.17331E5,1.086545E6,4.2634E4,3.26691E5,3.679E3,3.50977E5,8.0535E4,1.4296E4,3.265E3,9.32E3,4.2655E4,7.68212E5,2.8363E4,4.2572E4,9.8E2,6.62473E5,5.4178E4,1.8756E4,2.5184E4,4.87482E5,4.3201E4,6.8429E4,1.48902E5,7.75402E5,3.11143E5,2.1537E4,2.1097E4,2.38386E5,8.8305E4,3.1374E5,3.7237E4,7.3758E4,6.777E3,2.122E3,1.143E3,4.348E3,4.972E3,3.4984E4,7.671E3],"tree_param":{"num_deleted":"0","num_feature":"9","num_nodes":"69","size_leaf_vector":"1"}},{"base_weights":[4.1799285E-5,-5.1838487E-2,1.9219556E-1,-2.3391512E-1,-4.9578458E-2,1.6906202E-1,3.5473338E-1,-1.1719443E-2,-2.2484152E-1,-5.081444E-2,-4.8514858E-2,1.6954425E-1,1.6375592E-1,3.5509902E-1,1.738347E-2,-1.0854735E-2,-1.1832453E-2,-4.9922917E-2,-5.180098E-2,-4.7189023E-2,-4.9419142E-2,1.6961172E-1,8.063524E-3,1.5560403E-1,1.6649519E-1,1.7771382E-2,3.5050455E-1,-4.9715206E-2,-5.345664E-2,-5.1644225E-2,-5.376092E-2,-4.6877403E-2,-4.8011955E-2,-4.9271204E-2,-5.516638E-2,1.6924348E-1,1.7126207E-1,1.5373902E-1,1.6380173E-1,1.620001E-1,1.6746247E-1,3.412122E-1,1.7725369E-2,-2.4792315E-3,-2.6605327E-3,-2.6662878E-3,-2.8595375E-3,-2.590636E-3,-2.2955465E-3,-2.6998403E-3,-2.490729E-3,-2.345333E-3,-2.319518E-3,-2.4364113E-3,-2.383999E-3,-2.4501542E-3,-2.5024526E-3,-2.6870572E-3,-2.9083334E-3,8.515942E-3,8.421167E-3,8.59361E-3,8.490047E-3,7.6976814E-3,7.1141766E-3,8.580379E-3,7.56487E-3,8.405601E-3,7.833715E-3,8.342891E-3,8.5081225E-3,1.6091945E-2,1.7344922E-2],"categories":[],"categories_nodes":[],"categories_segments":[],"categories_sizes":[],"default_left":[0,0,0,0,0,0,0,0,0,0,0,0,0,0,0,0,0,0,0,0,0,0,0,0,0,0,0,0,0,0,0,0,0,0,0,0,0,0,0,0,0,0,0,0,0,0,0,0,0,0,0,0,0,0,0,0,0,0,0,0,0,0,0,0,0,0,0,0,0,0,0,0,0],"id":8,"left_children":[1,3,5,7,9,11,13,-1,15,17,19,21,23,25,-1,-1,-1,27,29,31,33,35,-1,37,39,-1,41,43,45,47,49,51,53,55,57,59,61,63,65,67,69,71,-1,-1,-1,-1,-1,-1,-1,-1,-1,-1,-1,-1,-1,-1,-1,-1,-1,-1,-1,-1,-1,-1,-1,-1,-1,-1,-1,-1,-1,-1,-1],"loss_changes":[4.456612E4,1.4484932E3,3.5735078E3,1.3256836E-1,4.5683594E0,2.1015625E0,1.8261719E-1,0E0,1.467514E-1,1.4116211E0,2.2382812E0,3.984375E-1,1.5223389E0,4.5898438E-2,0E0,0E0,0E0,6.1743164E-1,2.3168945E-1,1.920166E-1,9.4189453E-1,4.296875E-1,0E0,2.4172974E-1,1.986084E-1,0E0,1.6119385E-1,3.614502E-1,1.9866943E-2,6.804199E-1,4.99115E-2,5.6152344E-3,4.714966E-2,2.2338867E-1,1.1605835E-1,5.175781E-1,9.375E-2,1.3061523E-2,2.8833008E-1,2.737732E-1,4.1259766E-2,1.4279175E-1,0E0,0E0,0E0,0E0,0E0,0E0,0E0,0E0,0E0,0E0,0E0,0E0,0E0,0E0,0E0,0E0,0E0,0E0,0E0,0E0,0E0,0E0,0E0,0E0,0E0,0E0,0E0,0E0,0E0,0E0,0E0],"parents":[2147483647,0,0,1,1,2,2,3,3,4,4,5,5,6,6,8,8,9,9,10,10,11,11,12,12,13,13,17,17,18,18,19,19,20,20,21,21,23,23,24,24,26,26,27,27,28,28,29,29,30,30,31,31,32,32,33,33,34,34,35,35,36,36,37,37,38,38,39,39,40,40,41,41],"right_children":[2,4,6,8,10,12,14,-1,16,18,20,22,24,26,-1,-1,-1,28,30,32,34,36,-1,38,40,-1,42,44,46,48,50,52,54,56,58,60,62,64,66,68,70,72,-1,-1,-1,-1,-1,-1,-1,-1,-1,-1,-1,-1,-1,-1,-1,-1,-1,-1,-1,-1,-1,-1,-1,-1,-1,-1,-1,-1,-1,-1,-1],"split_conditions":[6E1,4E1,8E1,2.54E-1,1.770274E0,2.54E-1,1.0661877E3,-1.1719443E-2,1.524E0,1.2E1,4.02335E1,1.670495E3,5.08E-1,2.54E-1,1.738347E-2,-1.0854735E-2,-1.1832453E-2,1.60934E0,1.60934E0,2.3818232E1,1.0661877E3,1.770274E0,8.063524E-3,2.3818232E1,7.62E-1,1.7771382E-2,5.08E-1,7.62E-1,7.62E-1,6.43736E-1,2.54E-1,2.54E-1,1.1E1,2.494477E2,1.670495E3,1.2E1,2.494477E2,1.770274E0,2.494477E2,1.2E1,1.770274E0,2.3818232E1,1.7725369E-2,-2.4792315E-3,-2.6605327E-3,-2.6662878E-3,-2.8595375E-3,-2.590636E-3,-2.2955465E-3,-2.6998403E-3,-2.490729E-3,-2.345333E-3,-2.319518E-3,-2.4364113E-3,-2.383999E-3,-2.4501542E-3,-2.5024526E-3,-2.6870572E-3,-2.9083334E-3,8.515942E-3,8.421167E-3,8.59361E-3,8.490047E-3,7.6976814E-3,7.1141766E-3,8.580379E-3,7.56487E-3,8.405601E-3,7.833715E-3,8.342891E-3,8.5081225E-3,1.6091945E-2,1.7344922E-2],"split_indices":[0,0,0,2,1,2,1,0,2,5,1,1,2,2,0,0,0,1,1,1,1,1,0,1,2,0,2,2,2,1,2,2,5,1,1,5,1,1,1,5,1,1,0,0,0,0,0,0,0,0,0,0,0,0,0,0,0,0,0,0,0,0,0,0,0,0,0,0,0,0,0,0,0],"split_type":[0,0,0,0,0,0,0,0,0,0,0,0,0,0,0,0,0,0,0,0,0,0,0,0,0,0,0,0,0,0,0,0,0,0,0,0,0,0,0,0,0,0,0,0,0,0,0,0,0,0,0,0,0,0,0,0,0,0,0,0,0,0,0,0,0,0,0,0,0,0,0,0,0],"sum_hessian":[4.470472E6,3.520075E6,9.50397E5,4.3156E4,3.476919E6,8.31985E5,1.18412E5,4.0991E4,2.165E3,1.608123E6,1.868796E6,7.62643E5,6.9342E4,1.12538E5,5.874E3,1.319E3,8.46E2,8.44772E5,7.63351E5,7.57793E5,1.111003E6,7.56455E5,6.188E3,1.7455E4,5.1887E4,1.04955E5,7.583E3,7.97887E5,4.6885E4,7.06845E5,5.6506E4,5.49697E5,2.08096E5,1.083132E6,2.7871E4,6.18544E5,1.37911E5,1.4236E4,3.219E3,9.218E3,4.2669E4,2.309E3,5.274E3,7.69169E5,2.8718E4,4.5312E4,1.573E3,6.86657E5,2.0188E4,5.3307E4,3.199E3,5.18458E5,3.1239E4,6.5857E4,1.42239E5,8.05531E5,2.77601E5,1.8908E4,8.963E3,2.67543E5,3.51001E5,9.7205E4,4.0706E4,1.3962E4,2.74E2,1.974E3,1.245E3,4.278E3,4.94E3,3.4913E4,7.756E3,5.37E2,1.772E3],"tree_param":{"num_deleted":"0","num_feature":"9","num_nodes":"73","size_leaf_vector":"1"}},{"base_weights":[-3.1316486E-6,-4.9250256E-2,1.8253139E-1,-2.2222891E-1,-4.7099542E-2,1.6060752E-1,3.3699033E-1,-1.11336205E-2,-2.1365385E-1,-4.8274208E-2,-4.6089195E-2,1.6106777E-1,1.5554585E-1,3.3733645E-1,1.6514258E-2,-1.0331769E-2,-1.1239703E-2,-4.74278E-2,-4.921039E-2,-4.482985E-2,-4.6948336E-2,1.6113207E-1,7.660134E-3,1.4783333E-1,1.5815108E-1,1.6882638E-2,3.3300444E-1,-4.7230907E-2,-5.0783902E-2,-4.9061466E-2,-5.1071353E-2,-4.453346E-2,-4.561092E-2,-4.680772E-2,-5.241649E-2,1.6078219E-1,1.6269569E-1,1.4604741E-1,1.5554196E-1,1.53815E-1,1.5909065E-1,3.2424673E-1,1.6837234E-2,-2.35532E-3,-2.5275205E-3,-2.603119E-3,-2.521073E-3,-2.4610655E-3,-2.1809875E-3,-2.564816E-3,-2.3684294E-3,-2.2263757E-3,-2.5913594E-3,-2.31461E-3,-2.2647462E-3,-2.3276773E-3,-2.3772696E-3,-2.5529875E-3,-2.764492E-3,8.054733E-3,7.908087E-3,8.143702E-3,7.894505E-3,7.312823E-3,6.7607067E-3,8.151676E-3,7.187877E-3,7.985945E-3,7.43621E-3,7.925863E-3,8.08299E-3,1.5277672E-2,1.6490567E-2],"categories":[],"categories_nodes":[],"categories_segments":[],"categories_sizes":[],"default_left":[0,0,0,0,0,0,0,0,0,0,0,0,0,0,0,0,0,0,0,0,0,0,0,0,0,0,0,0,0,0,0,0,0,0,0,0,0,0,0,0,0,0,0,0,0,0,0,0,0,0,0,0,0,0,0,0,0,0,0,0,0,0,0,0,0,0,0,0,0,0,0,0,0],"id":9,"left_children":[1,3,5,7,9,11,13,-1,15,17,19,21,23,25,-1,-1,-1,27,29,31,33,35,-1,37,39,-1,41,43,45,47,49,51,53,55,57,59,61,63,65,67,69,71,-1,-1,-1,-1,-1,-1,-1,-1,-1,-1,-1,-1,-1,-1,-1,-1,-1,-1,-1,-1,-1,-1,-1,-1,-1,-1,-1,-1,-1,-1,-1],"loss_changes":[4.0190586E4,1.3098945E3,3.216793E3,1.1694336E-1,4.1254883E0,1.9140625E0,1.6210938E-1,0E0,1.2173462E-1,1.2719727E0,2.0205078E0,3.6132812E-1,1.3702393E0,4.1015625E-2,0E0,0E0,0E0,5.559082E-1,2.0922852E-1,1.7358398E-1,8.520508E-1,3.8867188E-1,0E0,2.1862793E-1,1.8676758E-1,0E0,1.4331055E-1,3.2702637E-1,1.9058228E-2,6.1279297E-1,4.4662476E-2,2.1484375E-2,4.2816162E-2,2.0092773E-1,1.057663E-1,4.8046875E-1,9.25293E-2,1.2451172E-2,2.6631165E-1,2.546234E-1,3.6987305E-2,1.4199829E-1,0E0,0E0,0E0,0E0,0E0,0E0,0E0,0E0,0E0,0E0,0E0,0E0,0E0,0E0,0E0,0E0,0E0,0E0,0E0,0E0,0E0,0E0,0E0,0E0,0E0,0E0,0E0,0E0,0E0,0E0,0E0],"parents":[2147483647,0,0,1,1,2,2,3,3,4,4,5,5,6,6,8,8,9,9,10,10,11,11,12,12,13,13,17,17,18,18,19,19,20,20,21,21,23,23,24,24,26,26,27,27,28,28,29,29,30,30,31,31,32,32,33,33,34,34,35,35,36,36,37,37,38,38,39,39,40,40,41,41],"right_children":[2,4,6,8,10,12,14,-1,16,18,20,22,24,26,-1,-1,-1,28,30,32,34,36,-1,38,40,-1,42,44,46,48,50,52,54,56,58,60,62,64,66,68,70,72,-1,-1,-1,-1,-1,-1,-1,-1,-1,-1,-1,-1,-1,-1,-1,-1,-1,-1,-1,-1,-1,-1,-1,-1,-1,-1,-1,-1,-1,-1,-1],"split_conditions":[6E1,4E1,8E1,2.54E-1,1.770274E0,2.54E-1,1.0661877E3,-1.11336205E-2,1.524E0,1.2E1,4.02335E1,1.670495E3,5.08E-1,2.54E-1,1.6514258E-2,-1.0331769E-2,-1.1239703E-2,1.60934E0,1.60934E0,2.3818232E1,1.0661877E3,1.770274E0,7.660134E-3,2.3818232E1,7.62E-1,1.6882638E-2,5.08E-1,7.62E-1,7E0,6.43736E-1,2.54E-1,2.574944E1,1.1E1,2.494477E2,1.670495E3,1.60934E0,1.0661877E3,1.770274E0,2.494477E2,1.2E1,1.770274E0,2.3818232E1,1.6837234E-2,-2.35532E-3,-2.5275205E-3,-2.603119E-3,-2.521073E-3,-2.4610655E-3,-2.1809875E-3,-2.564816E-3,-2.3684294E-3,-2.2263757E-3,-2.5913594E-3,-2.31461E-3,-2.2647462E-3,-2.3276773E-3,-2.3772696E-3,-2.5529875E-3,-2.764492E-3,8.054733E-3,7.908087E-3,8.143702E-3,7.894505E-3,7.312823E-3,6.7607067E-3,8.151676E-3,7.187877E-3,7.985945E-3,7.43621E-3,7.925863E-3,8.08299E-3,1.5277672E-2,1.6490567E-2],"split_indices":[0,0,0,2,1,2,1,0,2,5,1,1,2,2,0,0,0,1,1,1,1,1,0,1,2,0,2,2,5,1,2,3,5,1,1,1,1,1,1,5,1,1,0,0,0,0,0,0,0,0,0,0,0,0,0,0,0,0,0,0,0,0,0,0,0,0,0,0,0,0,0,0,0],"split_type":[0,0,0,0,0,0,0,0,0,0,0,0,0,0,0,0,0,0,0,0,0,0,0,0,0,0,0,0,0,0,0,0,0,0,0,0,0,0,0,0,0,0,0,0,0,0,0,0,0,0,0,0,0,0,0,0,0,0,0,0,0,0,0,0,0,0,0,0,0,0,0,0,0],"sum_hessian":[4.470934E6,3.520986E6,9.49948E5,4.3239E4,3.477747E6,8.31874E5,1.18074E5,4.1089E4,2.15E3,1.608084E6,1.869663E6,7.6251E5,6.9364E4,1.12231E5,5.843E3,1.331E3,8.19E2,8.44563E5,7.63521E5,7.58253E5,1.11141E6,7.56307E5,6.203E3,1.7529E4,5.1835E4,1.04523E5,7.708E3,7.97775E5,4.6788E4,7.06973E5,5.6548E4,5.49715E5,2.08538E5,1.083556E6,2.7854E4,6.18101E5,1.38206E5,1.4248E4,3.281E3,9.261E3,4.2574E4,2.333E3,5.375E3,7.68948E5,2.8827E4,1.0303E4,3.6485E4,6.86791E5,2.0182E4,5.3297E4,3.251E3,5.49274E5,4.41E2,6.6032E4,1.42506E5,8.05925E5,2.77631E5,1.8933E4,8.921E3,5.52193E5,6.5908E4,1.33229E5,4.977E3,1.3966E4,2.82E2,1.998E3,1.283E3,4.274E3,4.987E3,3.4857E4,7.717E3,5.48E2,1.785E3],"tree_param":{"num_deleted":"0","num_feature":"9","num_nodes":"73","size_leaf_vector":"1"}},{"base_weights":[-1.4873837E-5,-4.6783876E-2,1.7345361E-1,-1.055576E-2,-4.474457E-2,1.5257831E-1,3.2014766E-1,-4.58597E-2,-4.3784205E-2,1.5301444E-1,1.4777425E-1,3.2047617E-1,1.5687255E-2,-4.5055676E-2,-4.674962E-2,-4.258783E-2,-4.4601183E-2,1.5380953E-1,1.5240598E-1,1.404129E-1,1.502549E-1,1.6038632E-2,3.1634632E-1,-4.4868164E-2,-4.8248123E-2,-4.6608392E-2,-4.8516907E-2,-4.2306658E-2,-4.332985E-2,-4.4467144E-2,-4.979587E-2,1.5387261E-1,7.3020533E-3,1.5196314E-1,1.5433247E-1,1.387473E-1,1.4776488E-1,1.4620458E-1,1.5113266E-1,3.0778274E-1,1.599597E-2,-2.2375348E-3,-2.4011445E-3,-2.406098E-3,-2.5894798E-3,-2.3380464E-3,-2.071915E-3,-2.4365888E-3,-2.247502E-3,-2.1150631E-3,-2.464312E-3,-2.1988945E-3,-2.1515207E-3,-2.21128E-3,-2.2584328E-3,-2.425349E-3,-2.6258084E-3,7.70927E-3,7.6517737E-3,7.6083723E-3,7.511352E-3,7.746938E-3,7.3528164E-3,6.947208E-3,6.4233704E-3,7.7446583E-3,6.8351175E-3,7.586274E-3,7.0676007E-3,7.529489E-3,7.678987E-3,1.451978E-2,1.5655499E-2],"categories":[],"categories_nodes":[],"categories_segments":[],"categories_sizes":[],"default_left":[0,0,0,0,0,0,0,0,0,0,0,0,0,0,0,0,0,0,0,0,0,0,0,0,0,0,0,0,0,0,0,0,0,0,0,0,0,0,0,0,0,0,0,0,0,0,0,0,0,0,0,0,0,0,0,0,0,0,0,0,0,0,0,0,0,0,0,0,0,0,0,0,0],"id":10,"left_children":[1,3,5,-1,7,9,11,13,15,17,19,21,-1,23,25,27,29,31,33,35,37,-1,39,41,43,45,47,49,51,53,55,57,-1,59,61,63,65,67,69,71,-1,-1,-1,-1,-1,-1,-1,-1,-1,-1,-1,-1,-1,-1,-1,-1,-1,-1,-1,-1,-1,-1,-1,-1,-1,-1,-1,-1,-1,-1,-1,-1,-1],"loss_changes":[3.6270023E4,1.180043E3,2.9071973E3,0E0,3.7226562E0,1.71875E0,1.484375E-1,1.1496582E0,1.824707E0,3.4570312E-1,1.2425537E0,3.515625E-2,0E0,5.040283E-1,1.8835449E-1,1.5637207E-1,7.709961E-1,1.3916016E-1,3.4472656E-1,1.9326782E-1,1.6186523E-1,0E0,1.3421631E-1,2.9382324E-1,1.8463135E-2,5.559082E-1,4.1107178E-2,1.8676758E-2,3.85437E-2,1.8139648E-1,9.535217E-2,6.25E-2,0E0,1.015625E-1,3.3288574E-1,1.0986328E-2,2.3188019E-1,2.2628784E-1,3.326416E-2,1.1885071E-1,0E0,0E0,0E0,0E0,0E0,0E0,0E0,0E0,0E0,0E0,0E0,0E0,0E0,0E0,0E0,0E0,0E0,0E0,0E0,0E0,0E0,0E0,0E0,0E0,0E0,0E0,0E0,0E0,0E0,0E0,0E0,0E0,0E0],"parents":[2147483647,0,0,1,1,2,2,4,4,5,5,6,6,7,7,8,8,9,9,10,10,11,11,13,13,14,14,15,15,16,16,17,17,18,18,19,19,20,20,22,22,23,23,24,24,25,25,26,26,27,27,28,28,29,29,30,30,31,31,33,33,34,34,35,35,36,36,37,37,38,38,39,39],"right_children":[2,4,6,-1,8,10,12,14,16,18,20,22,-1,24,26,28,30,32,34,36,38,-1,40,42,44,46,48,50,52,54,56,58,-1,60,62,64,66,68,70,72,-1,-1,-1,-1,-1,-1,-1,-1,-1,-1,-1,-1,-1,-1,-1,-1,-1,-1,-1,-1,-1,-1,-1,-1,-1,-1,-1,-1,-1,-1,-1,-1,-1],"split_conditions":[6E1,4E1,8E1,-1.055576E-2,1.770274E0,1.016E1,1.0661877E3,1.2E1,4.02335E1,1.2E1,2.032E1,1.016E1,1.5687255E-2,1.60934E0,1.60934E0,2.3818232E1,1.0661877E3,1.670495E3,1.770274E0,2.3818232E1,4.064E1,1.6038632E-2,3.048E1,3.048E1,3.048E1,6.43736E-1,1.016E1,2.574944E1,1.1E1,2.494477E2,1.670495E3,1.60934E0,7.3020533E-3,1.60934E0,1.0661877E3,1.770274E0,2.494477E2,1.2E1,1.770274E0,2.3818232E1,1.599597E-2,-2.2375348E-3,-2.4011445E-3,-2.406098E-3,-2.5894798E-3,-2.3380464E-3,-2.071915E-3,-2.4365888E-3,-2.247502E-3,-2.1150631E-3,-2.464312E-3,-2.1988945E-3,-2.1515207E-3,-2.21128E-3,-2.2584328E-3,-2.425349E-3,-2.6258084E-3,7.70927E-3,7.6517737E-3,7.6083723E-3,7.511352E-3,7.746938E-3,7.3528164E-3,6.947208E-3,6.4233704E-3,7.7446583E-3,6.8351175E-3,7.586274E-3,7.0676007E-3,7.529489E-3,7.678987E-3,1.451978E-2,1.5655499E-2],"split_indices":[0,0,0,0,1,7,1,5,1,5,7,7,0,1,1,1,1,1,1,1,7,0,7,7,7,1,7,3,5,1,1,1,0,1,1,1,1,5,1,1,0,0,0,0,0,0,0,0,0,0,0,0,0,0,0,0,0,0,0,0,0,0,0,0,0,0,0,0,0,0,0,0,0],"split_type":[0,0,0,0,0,0,0,0,0,0,0,0,0,0,0,0,0,0,0,0,0,0,0,0,0,0,0,0,0,0,0,0,0,0,0,0,0,0,0,0,0,0,0,0,0,0,0,0,0,0,0,0,0,0,0,0,0,0,0,0,0,0,0,0,0,0,0,0,0,0,0,0,0],"sum_hessian":[4.470632E6,3.521262E6,9.4937E5,4.3161E4,3.478101E6,8.31102E5,1.18268E5,1.609352E6,1.868749E6,7.61903E5,6.9199E4,1.12449E5,5.819E3,8.45507E5,7.63845E5,7.58324E5,1.110425E6,3.30186E5,4.31717E5,1.7456E4,5.1743E4,1.04846E5,7.603E3,7.98615E5,4.6892E4,7.07347E5,5.6498E4,5.49979E5,2.08345E5,1.082502E6,2.7923E4,3.27508E5,2.678E3,3.51092E5,8.0625E4,1.4248E4,3.208E3,9.246E3,4.2497E4,2.264E3,5.339E3,7.6996E5,2.8655E4,4.5293E4,1.599E3,6.87068E5,2.0279E4,5.3276E4,3.222E3,5.49561E5,4.18E2,6.5798E4,1.42547E5,8.05292E5,2.7721E5,1.8959E4,8.964E3,2.38289E5,8.9219E4,3.14049E5,3.7043E4,7.4405E4,6.22E3,1.3968E4,2.8E2,1.943E3,1.265E3,4.311E3,4.935E3,3.4832E4,7.665E3,5.44E2,1.72E3],"tree_param":{"num_deleted":"0","num_feature":"9","num_nodes":"73","size_leaf_vector":"1"}},{"base_weights":[2.3753766E-5,-4.443461E-2,1.6476204E-1,-2.0055717E-1,-4.250678E-2,1.4494823E-1,3.041374E-1,-1.00491755E-2,-1.922624E-1,-4.3565817E-2,-4.1596223E-2,1.4536376E-1,1.403773E-1,3.0449164E-1,1.4935455E-2,-9.2661055E-3,-1.0151732E-2,-4.340024E-2,-4.597843E-2,-4.045865E-2,-4.2371914E-2,1.4542174E-1,6.910832E-3,1.3339011E-1,1.4273547E-1,1.5236673E-2,3.0087668E-1,-4.3494757E-2,-3.914998E-2,-2.3082243E-3,-4.311793E-2,-4.0191293E-2,-4.116366E-2,-4.224421E-2,-4.7311064E-2,1.450986E-1,1.4686711E-1,1.3182108E-1,1.4029232E-1,1.3885511E-1,1.4358053E-1,2.9368493E-1,1.5197828E-2,-2.1700931E-3,-2.299585E-3,-1.9445904E-3,-2.3391745E-3,-1.8779355E-3,-2.3955042E-3,-2.0093047E-3,-2.335347E-3,-2.05758E-3,-2.5293082E-3,-2.1007012E-3,-2.1455772E-3,-2.3044928E-3,-2.4946227E-3,7.2693727E-3,7.1340227E-3,7.371507E-3,7.2758854E-3,6.5998733E-3,6.1033107E-3,7.356687E-3,6.481441E-3,6.832567E-3,7.3930356E-3,7.15286E-3,7.2954944E-3,1.3794901E-2,1.4975962E-2],"categories":[],"categories_nodes":[],"categories_segments":[],"categories_sizes":[],"default_left":[0,0,0,0,0,0,0,0,0,0,0,0,0,0,0,0,0,0,0,0,0,0,0,0,0,0,0,0,0,0,0,0,0,0,0,0,0,0,0,0,0,0,0,0,0,0,0,0,0,0,0,0,0,0,0,0,0,0,0,0,0,0,0,0,0,0,0,0,0,0,0],"id":11,"left_children":[1,3,5,7,9,11,13,-1,15,17,19,21,23,25,-1,-1,-1,27,29,31,33,35,-1,37,39,-1,41,43,45,-1,47,49,51,53,55,57,59,61,63,65,67,69,-1,-1,-1,-1,-1,-1,-1,-1,-1,-1,-1,-1,-1,-1,-1,-1,-1,-1,-1,-1,-1,-1,-1,-1,-1,-1,-1,-1,-1],"loss_changes":[3.2738527E4,1.0594541E3,2.6233516E3,1.1315918E-1,3.3510742E0,1.5585938E0,1.3671875E-1,0E0,1.21025085E-1,6.401367E-1,1.6479492E0,2.9589844E-1,1.1235352E0,4.8828125E-3,0E0,0E0,0E0,6.027832E-1,5.2947998E-2,1.4123535E-1,6.993408E-1,3.310547E-1,0E0,1.7111206E-1,1.5002441E-1,0E0,6.6589355E-2,3.3911133E-1,6.269455E-2,0E0,1.66543E-1,1.6784668E-2,2.1636963E-2,1.6467285E-1,8.5998535E-2,4.111328E-1,8.3496094E-2,8.4991455E-3,2.1641922E-1,1.6435242E-1,3.100586E-2,1.3934326E-1,0E0,0E0,0E0,0E0,0E0,0E0,0E0,0E0,0E0,0E0,0E0,0E0,0E0,0E0,0E0,0E0,0E0,0E0,0E0,0E0,0E0,0E0,0E0,0E0,0E0,0E0,0E0,0E0,0E0],"parents":[2147483647,0,0,1,1,2,2,3,3,4,4,5,5,6,6,8,8,9,9,10,10,11,11,12,12,13,13,17,17,18,18,19,19,20,20,21,21,23,23,24,24,26,26,27,27,28,28,30,30,31,31,32,32,33,33,34,34,35,35,36,36,37,37,38,38,39,39,40,40,41,41],"right_children":[2,4,6,8,10,12,14,-1,16,18,20,22,24,26,-1,-1,-1,28,30,32,34,36,-1,38,40,-1,42,44,46,-1,48,50,52,54,56,58,60,62,64,66,68,70,-1,-1,-1,-1,-1,-1,-1,-1,-1,-1,-1,-1,-1,-1,-1,-1,-1,-1,-1,-1,-1,-1,-1,-1,-1,-1,-1,-1,-1],"split_conditions":[6E1,4E1,8E1,2.54E-1,1.770274E0,2.54E-1,1.0806718E3,-1.00491755E-2,1.524E0,1.60934E0,4.02335E1,1.670495E3,5.08E-1,2.54E-1,1.4935455E-2,-9.2661055E-3,-1.0151732E-2,6.43736E-1,2.54E-1,2.3818232E1,1.0661877E3,1.770274E0,6.910832E-3,2.3818232E1,7.62E-1,1.5236673E-2,5.08E-1,7.62E-1,7.62E-1,-2.3082243E-3,7.62E-1,3.057746E1,2.574944E1,2.494477E2,1.670495E3,1.60934E0,2.494477E2,1.770274E0,2.494477E2,1.770274E0,1.770274E0,2.3818232E1,1.5197828E-2,-2.1700931E-3,-2.299585E-3,-1.9445904E-3,-2.3391745E-3,-1.8779355E-3,-2.3955042E-3,-2.0093047E-3,-2.335347E-3,-2.05758E-3,-2.5293082E-3,-2.1007012E-3,-2.1455772E-3,-2.3044928E-3,-2.4946227E-3,7.2693727E-3,7.1340227E-3,7.371507E-3,7.2758854E-3,6.5998733E-3,6.1033107E-3,7.356687E-3,6.481441E-3,6.832567E-3,7.3930356E-3,7.15286E-3,7.2954944E-3,1.3794901E-2,1.4975962E-2],"split_indices":[0,0,0,2,1,2,8,0,2,1,1,1,2,2,0,0,0,1,2,1,1,1,0,1,2,0,2,2,2,0,2,3,3,1,1,1,1,1,1,1,1,1,0,0,0,0,0,0,0,0,0,0,0,0,0,0,0,0,0,0,0,0,0,0,0,0,0,0,0,0,0],"split_type":[0,0,0,0,0,0,0,0,0,0,0,0,0,0,0,0,0,0,0,0,0,0,0,0,0,0,0,0,0,0,0,0,0,0,0,0,0,0,0,0,0,0,0,0,0,0,0,0,0,0,0,0,0,0,0,0,0,0,0,0,0,0,0,0,0,0,0,0,0,0,0],"sum_hessian":[4.470035E6,3.520066E6,9.49969E5,4.2935E4,3.477131E6,8.31731E5,1.18238E5,4.0814E4,2.121E3,1.60748E6,1.869651E6,7.62393E5,6.9338E4,1.10943E5,7.295E3,1.301E3,8.2E2,1.50426E6,1.0322E5,7.58032E5,1.111619E6,7.56239E5,6.154E3,1.7511E4,5.1827E4,1.03909E5,7.034E3,1.471526E6,3.2734E4,9.6902E4,6.318E3,5.49648E5,2.08384E5,1.083611E6,2.8008E4,6.18139E5,1.381E5,1.4284E4,3.227E3,9.298E3,4.2529E4,2.138E3,4.896E3,1.418759E6,5.2767E4,3.1669E4,1.065E3,2.929E3,3.389E3,5.49217E5,4.31E2,2.08123E5,2.61E2,8.05747E5,2.77864E5,1.9026E4,8.982E3,5.52126E5,6.6013E4,9.7367E4,4.0733E4,1.4018E4,2.66E2,1.958E3,1.269E3,7.483E3,1.815E3,3.4778E4,7.751E3,5.4E2,1.598E3],"tree_param":{"num_deleted":"0","num_feature":"9","num_nodes":"71","size_leaf_vector":"1"}},{"base_weights":[-1.2647528E-5,-4.2226374E-2,1.5651883E-1,-1.9053152E-1,-4.038177E-2,1.3770138E-1,2.8893453E-1,-1.9093728E-1,-1.8270063E-1,-4.13881E-2,-3.9516076E-2,1.3809408E-1,1.3337457E-1,2.8923112E-1,1.4156277E-2,-9.502976E-3,-9.605033E-3,-1.7563343E-1,-9.597176E-3,-4.062409E-2,-4.223276E-2,-3.8436014E-2,-4.025387E-2,1.3884856E-1,1.3751554E-1,1.2676041E-1,1.3559002E-1,1.4475072E-2,2.854513E-1,-8.693389E-3,-9.603929E-3,-4.0453304E-2,-4.3534625E-2,-4.2359266E-2,-4.029355E-2,-3.8182016E-2,-3.9105706E-2,-4.013222E-2,-4.496438E-2,1.3892674E-1,6.6783153E-3,1.3710861E-1,1.39286E-1,1.2521902E-1,1.3354242E-1,1.3188133E-1,1.3639781E-1,2.776727E-1,1.4439124E-2,-2.0173418E-3,-2.166088E-3,-2.2379973E-3,-2.1595198E-3,-2.1114387E-3,-2.199303E-3,-1.7512102E-3,-2.2078839E-3,-1.9088377E-3,-2.221492E-3,-1.9860715E-3,-1.9410612E-3,-1.9956916E-3,-2.0383368E-3,-2.1898411E-3,-2.3700164E-3,6.9603384E-3,6.9080996E-3,6.864467E-3,6.779106E-3,6.9920085E-3,6.6321157E-3,6.269902E-3,5.800787E-3,6.9894926E-3,6.168531E-3,6.8616658E-3,6.3608424E-3,6.795128E-3,6.9306395E-3,1.3102569E-2,1.4116809E-2],"categories":[],"categories_nodes":[],"categories_segments":[],"categories_sizes":[],"default_left":[0,0,0,0,0,0,0,0,0,0,0,0,0,0,0,0,0,0,0,0,0,0,0,0,0,0,0,0,0,0,0,0,0,0,0,0,0,0,0,0,0,0,0,0,0,0,0,0,0,0,0,0,0,0,0,0,0,0,0,0,0,0,0,0,0,0,0,0,0,0,0,0,0,0,0,0,0,0,0,0,0],"id":12,"left_children":[1,3,5,7,9,11,13,15,17,19,21,23,25,27,-1,-1,-1,29,-1,31,33,35,37,39,41,43,45,-1,47,-1,-1,49,51,53,55,57,59,61,63,65,-1,67,69,71,73,75,77,79,-1,-1,-1,-1,-1,-1,-1,-1,-1,-1,-1,-1,-1,-1,-1,-1,-1,-1,-1,-1,-1,-1,-1,-1,-1,-1,-1,-1,-1,-1,-1,-1,-1],"loss_changes":[2.9553018E4,9.6362305E2,2.3669902E3,1.0253906E-1,3.0292969E0,1.3955078E0,1.2207031E-1,5.3710938E-3,1.07055664E-1,1.036377E0,1.4887695E0,3.125E-1,9.974365E-1,3.2226562E-2,0E0,0E0,0E0,2.407074E-3,0E0,4.1833496E-1,1.8579102E-1,1.2768555E-1,6.348877E-1,1.18652344E-1,2.919922E-1,1.6506958E-1,1.3726807E-1,0E0,1.1602783E-1,0E0,0E0,2.4194336E-1,1.7814636E-2,1.5039062E-1,9.516754E-1,1.6357422E-2,3.503418E-2,1.4855957E-1,7.746124E-2,5.078125E-2,0E0,7.8125E-2,2.7819824E-1,8.804321E-3,1.8642044E-1,2.1479797E-1,2.7893066E-2,9.333801E-2,0E0,0E0,0E0,0E0,0E0,0E0,0E0,0E0,0E0,0E0,0E0,0E0,0E0,0E0,0E0,0E0,0E0,0E0,0E0,0E0,0E0,0E0,0E0,0E0,0E0,0E0,0E0,0E0,0E0,0E0,0E0,0E0,0E0],"parents":[2147483647,0,0,1,1,2,2,3,3,4,4,5,5,6,6,7,7,8,8,9,9,10,10,11,11,12,12,13,13,17,17,19,19,20,20,21,21,22,22,23,23,24,24,25,25,26,26,28,28,31,31,32,32,33,33,34,34,35,35,36,36,37,37,38,38,39,39,41,41,42,42,43,43,44,44,45,45,46,46,47,47],"right_children":[2,4,6,8,10,12,14,16,18,20,22,24,26,28,-1,-1,-1,30,-1,32,34,36,38,40,42,44,46,-1,48,-1,-1,50,52,54,56,58,60,62,64,66,-1,68,70,72,74,76,78,80,-1,-1,-1,-1,-1,-1,-1,-1,-1,-1,-1,-1,-1,-1,-1,-1,-1,-1,-1,-1,-1,-1,-1,-1,-1,-1,-1,-1,-1,-1,-1,-1,-1],"split_conditions":[6E1,4E1,8E1,2.54E-1,1.770274E0,2.54E-1,1.0661877E3,1.2E1,1.27E0,1.2E1,4.02335E1,1.2E1,5.08E-1,2.54E-1,1.4156277E-2,-9.502976E-3,-9.605033E-3,1.770274E0,-9.597176E-3,1.60934E0,2.54E-1,2.3818232E1,1.0661877E3,1.0661877E3,1.770274E0,2.3818232E1,7.62E-1,1.4475072E-2,5.08E-1,-8.693389E-3,-9.603929E-3,7.62E-1,7E0,1.60934E0,7.62E-1,2.574944E1,1.1E1,2.494477E2,1.670495E3,1.60934E0,6.6783153E-3,1.60934E0,1.0661877E3,1.770274E0,2.494477E2,1.2E1,1.770274E0,2.3818232E1,1.4439124E-2,-2.0173418E-3,-2.166088E-3,-2.2379973E-3,-2.1595198E-3,-2.1114387E-3,-2.199303E-3,-1.7512102E-3,-2.2078839E-3,-1.9088377E-3,-2.221492E-3,-1.9860715E-3,-1.9410612E-3,-1.9956916E-3,-2.0383368E-3,-2.1898411E-3,-2.3700164E-3,6.9603384E-3,6.9080996E-3,6.864467E-3,6.779106E-3,6.9920085E-3,6.6321157E-3,6.269902E-3,5.800787E-3,6.9894926E-3,6.168531E-3,6.8616658E-3,6.3608424E-3,6.795128E-3,6.9306395E-3,1.3102569E-2,1.4116809E-2],"split_indices":[0,0,0,2,1,2,1,5,2,5,1,5,2,2,0,0,0,1,0,1,2,1,1,1,1,1,2,0,2,0,0,2,5,1,2,3,5,1,1,1,0,1,1,1,1,5,1,1,0,0,0,0,0,0,0,0,0,0,0,0,0,0,0,0,0,0,0,0,0,0,0,0,0,0,0,0,0,0,0,0,0],"split_type":[0,0,0,0,0,0,0,0,0,0,0,0,0,0,0,0,0,0,0,0,0,0,0,0,0,0,0,0,0,0,0,0,0,0,0,0,0,0,0,0,0,0,0,0,0,0,0,0,0,0,0,0,0,0,0,0,0,0,0,0,0,0,0,0,0,0,0,0,0,0,0,0,0,0,0,0,0,0,0,0,0],"sum_hessian":[4.472458E6,3.522503E6,9.49955E5,4.3273E4,3.47923E6,8.31757E5,1.18198E5,4.1119E4,2.154E3,1.608907E6,1.870323E6,7.6252E5,6.9237E4,1.1241E5,5.788E3,2.353E4,1.7589E4,1.232E3,9.22E2,8.44811E5,7.64096E5,7.5911E5,1.111213E6,3.30839E5,4.31681E5,1.7387E4,5.185E4,1.04837E5,7.573E3,1.123E3,1.09E2,7.98001E5,4.681E4,7.17282E5,4.6814E4,5.5041E5,2.087E5,1.083248E6,2.7965E4,3.25988E5,4.851E3,3.51067E5,8.0614E4,1.4183E4,3.204E3,9.303E3,4.2547E4,2.296E3,5.277E3,7.69456E5,2.8545E4,1.0238E4,3.6572E4,6.64043E5,5.3239E4,1.981E4,2.7004E4,5.49954E5,4.56E2,6.5909E4,1.42791E5,8.05921E5,2.77327E5,1.8917E4,9.048E3,2.38484E5,8.7504E4,3.13821E5,3.7246E4,7.4389E4,6.225E3,1.39E4,2.83E2,1.977E3,1.227E3,4.319E3,4.984E3,3.4823E4,7.724E3,5.41E2,1.755E3],"tree_param":{"num_deleted":"0","num_feature":"9","num_nodes":"81","size_leaf_vector":"1"}},{"base_weights":[1.9403748E-5,-4.011133E-2,1.4871252E-1,-9.049971E-3,-3.8362317E-2,1.3081579E-1,2.7448648E-1,-3.931839E-2,-3.753976E-2,1.3118954E-1,1.2669842E-1,2.752079E-1,2.7224678E-1,-3.859309E-2,-4.012126E-2,-3.6513746E-2,-3.8240366E-2,1.3190559E-1,1.3064134E-1,1.2040484E-1,1.288185E-1,1.3583149E-2,1.3773942E-2,2.728342E-1,1.3303148E-2,-3.8430262E-2,-4.1361786E-2,-4.0241767E-2,-3.827848E-2,-3.6272656E-2,-3.7149947E-2,-3.812543E-2,-4.2698845E-2,1.3196029E-1,6.257295E-3,1.3025405E-1,1.32319E-1,1.1896149E-1,1.2665562E-1,1.2533599E-1,1.2957649E-1,1.3665855E-2,2.6686266E-1,-1.9164477E-3,-2.0577915E-3,-2.1271713E-3,-2.0514275E-3,-2.0058888E-3,-2.0893656E-3,-1.6636044E-3,-2.0975235E-3,-1.8134014E-3,-2.115108E-3,-1.8866782E-3,-1.8440047E-3,-1.8958955E-3,-1.9363677E-3,-2.0797977E-3,-2.2515303E-3,6.6122855E-3,6.559834E-3,6.521262E-3,6.440206E-3,6.642528E-3,6.3007884E-3,5.9564244E-3,5.5099167E-3,6.6403407E-3,5.8466378E-3,6.518036E-3,6.047211E-3,6.4554266E-3,6.5841237E-3,1.2595743E-2,1.3658434E-2],"categories":[],"categories_nodes":[],"categories_segments":[],"categories_sizes":[],"default_left":[0,0,0,0,0,0,0,0,0,0,0,0,0,0,0,0,0,0,0,0,0,0,0,0,0,0,0,0,0,0,0,0,0,0,0,0,0,0,0,0,0,0,0,0,0,0,0,0,0,0,0,0,0,0,0,0,0,0,0,0,0,0,0,0,0,0,0,0,0,0,0,0,0,0,0],"id":13,"left_children":[1,3,5,-1,7,9,11,13,15,17,19,21,23,25,27,29,31,33,35,37,39,-1,-1,41,-1,43,45,47,49,51,53,55,57,59,-1,61,63,65,67,69,71,-1,73,-1,-1,-1,-1,-1,-1,-1,-1,-1,-1,-1,-1,-1,-1,-1,-1,-1,-1,-1,-1,-1,-1,-1,-1,-1,-1,-1,-1,-1,-1,-1,-1],"loss_changes":[2.6678297E4,8.675371E2,2.138787E3,0E0,2.7333984E0,1.2636719E0,1.1621094E-1,9.350586E-1,1.3422852E0,2.8222656E-1,9.0856934E-1,1.1230469E-2,3.2714844E-2,3.7939453E-1,1.6796875E-1,1.1505127E-1,5.6762695E-1,1.0546875E-1,2.6367188E-1,1.4250183E-1,1.204834E-1,0E0,0E0,3.1738281E-3,0E0,2.1875E-1,1.6723633E-2,1.3562012E-1,8.6021423E-1,1.38549805E-2,3.1433105E-2,1.3366699E-1,6.989288E-2,5.46875E-2,0E0,7.03125E-2,2.5439453E-1,7.675171E-3,1.7949677E-1,1.8919373E-1,2.4902344E-2,0E0,1.2121582E-1,0E0,0E0,0E0,0E0,0E0,0E0,0E0,0E0,0E0,0E0,0E0,0E0,0E0,0E0,0E0,0E0,0E0,0E0,0E0,0E0,0E0,0E0,0E0,0E0,0E0,0E0,0E0,0E0,0E0,0E0,0E0,0E0],"parents":[2147483647,0,0,1,1,2,2,4,4,5,5,6,6,7,7,8,8,9,9,10,10,11,11,12,12,13,13,14,14,15,15,16,16,17,17,18,18,19,19,20,20,23,23,25,25,26,26,27,27,28,28,29,29,30,30,31,31,32,32,33,33,35,35,36,36,37,37,38,38,39,39,40,40,42,42],"right_children":[2,4,6,-1,8,10,12,14,16,18,20,22,24,26,28,30,32,34,36,38,40,-1,-1,42,-1,44,46,48,50,52,54,56,58,60,-1,62,64,66,68,70,72,-1,74,-1,-1,-1,-1,-1,-1,-1,-1,-1,-1,-1,-1,-1,-1,-1,-1,-1,-1,-1,-1,-1,-1,-1,-1,-1,-1,-1,-1,-1,-1,-1,-1],"split_conditions":[6E1,4E1,8E1,-9.049971E-3,1.770274E0,1.016E1,2.494477E2,1.2E1,4.02335E1,1.2E1,2.032E1,6.43736E-1,1.670495E3,1.60934E0,1.016E1,2.3818232E1,1.0661877E3,1.670495E3,1.770274E0,2.3818232E1,4.064E1,1.3583149E-2,1.3773942E-2,1.016E1,1.3303148E-2,3.048E1,7E0,1.60934E0,3.048E1,2.574944E1,1.1E1,2.494477E2,1.670495E3,1.448406E0,6.257295E-3,1.60934E0,1.0661877E3,1.770274E0,2.494477E2,1.2E1,1.770274E0,1.3665855E-2,3.048E1,-1.9164477E-3,-2.0577915E-3,-2.1271713E-3,-2.0514275E-3,-2.0058888E-3,-2.0893656E-3,-1.6636044E-3,-2.0975235E-3,-1.8134014E-3,-2.115108E-3,-1.8866782E-3,-1.8440047E-3,-1.8958955E-3,-1.9363677E-3,-2.0797977E-3,-2.2515303E-3,6.6122855E-3,6.559834E-3,6.521262E-3,6.440206E-3,6.642528E-3,6.3007884E-3,5.9564244E-3,5.5099167E-3,6.6403407E-3,5.8466378E-3,6.518036E-3,6.047211E-3,6.4554266E-3,6.5841237E-3,1.2595743E-2,1.3658434E-2],"split_indices":[0,0,0,0,1,7,1,5,1,5,7,1,1,1,7,1,1,1,1,1,7,0,0,7,0,7,5,1,7,3,5,1,1,1,0,1,1,1,1,5,1,0,7,0,0,0,0,0,0,0,0,0,0,0,0,0,0,0,0,0,0,0,0,0,0,0,0,0,0,0,0,0,0,0,0],"split_type":[0,0,0,0,0,0,0,0,0,0,0,0,0,0,0,0,0,0,0,0,0,0,0,0,0,0,0,0,0,0,0,0,0,0,0,0,0,0,0,0,0,0,0,0,0,0,0,0,0,0,0,0,0,0,0,0,0,0,0,0,0,0,0,0,0,0,0,0,0,0,0,0,0,0,0],"sum_hessian":[4.470849E6,3.52066E6,9.50189E5,4.3169E4,3.477491E6,8.31828E5,1.18361E5,1.608197E6,1.869294E6,7.62575E5,6.9253E4,8.9433E4,2.8928E4,8.44941E5,7.63256E5,7.5852E5,1.110774E6,3.30566E5,4.32009E5,1.7465E4,5.1788E4,6.421E3,8.3012E4,2.6379E4,2.549E3,7.98023E5,4.6918E4,7.16388E5,4.6868E4,5.50112E5,2.08408E5,1.082868E6,2.7906E4,3.27894E5,2.672E3,3.51048E5,8.0961E4,1.4205E4,3.26E3,9.287E3,4.2501E4,2.4364E4,2.015E3,7.69438E5,2.8585E4,1.0293E4,3.6625E4,6.6321E5,5.3178E4,1.9835E4,2.7033E4,5.49697E5,4.15E2,6.5851E4,1.42557E5,8.05296E5,2.77572E5,1.8958E4,8.948E3,2.38555E5,8.9339E4,3.13897E5,3.7151E4,7.4646E4,6.315E3,1.3927E4,2.78E2,1.989E3,1.271E3,4.318E3,4.969E3,3.4825E4,7.676E3,6.1E2,1.405E3],"tree_param":{"num_deleted":"0","num_feature":"9","num_nodes":"75","size_leaf_vector":"1"}},{"base_weights":[1.9865462E-5,-3.810582E-2,1.4121242E-1,-1.719609E-1,-3.64445E-2,1.2427597E-1,2.6076663E-1,-1.7233728E-1,-1.6470818E-1,-3.73534E-2,-3.56625E-2,1.24630325E-1,1.2037662E-1,2.6145598E-1,2.586208E-1,-8.575353E-3,-8.672145E-3,-1.5851364E-1,-8.714434E-3,-3.6663197E-2,-3.8116265E-2,-3.470605E-2,-3.6339812E-2,1.2531066E-1,1.2410886E-1,1.1441199E-1,1.2238553E-1,1.2901574E-2,1.308579E-2,2.5918153E-1,1.2637734E-2,-7.636053E-3,-1.6336386E-1,-3.650954E-2,-3.928565E-2,-3.823117E-2,-3.6354326E-2,-3.445927E-2,-3.5309218E-2,-3.622952E-2,-4.0567473E-2,1.2538116E-1,1.2053845E-1,1.2374131E-1,1.2570237E-1,1.130111E-1,1.2044455E-1,1.1908113E-1,1.23102576E-1,1.2982619E-2,2.5348103E-1,-8.5765105E-3,-7.6612676E-3,-1.8206555E-3,-1.9549003E-3,-1.9726497E-3,-1.8475151E-3,-1.9056533E-3,-1.9849415E-3,-1.5803518E-3,-1.9926387E-3,-1.7243549E-3,-1.6998065E-3,-1.7575854E-3,-1.81197E-3,-1.8016376E-3,-1.8394891E-3,-1.9756462E-3,-2.140083E-3,6.2817237E-3,6.234446E-3,6.1231856E-3,5.9454446E-3,6.1951857E-3,6.118172E-3,6.3106134E-3,5.9849727E-3,5.6586307E-3,5.235862E-3,6.3082026E-3,5.5674776E-3,6.192727E-3,5.7458645E-3,6.132768E-3,6.2553356E-3,1.1965473E-2,1.2976502E-2],"categories":[],"categories_nodes":[],"categories_segments":[],"categories_sizes":[],"default_left":[0,0,0,0,0,0,0,0,0,0,0,0,0,0,0,0,0,0,0,0,0,0,0,0,0,0,0,0,0,0,0,0,0,0,0,0,0,0,0,0,0,0,0,0,0,0,0,0,0,0,0,0,0,0,0,0,0,0,0,0,0,0,0,0,0,0,0,0,0,0,0,0,0,0,0,0,0,0,0,0,0,0,0,0,0,0,0],"id":14,"left_children":[1,3,5,7,9,11,13,15,17,19,21,23,25,27,29,-1,-1,31,-1,33,35,37,39,41,43,45,47,-1,-1,49,-1,-1,51,53,55,57,59,61,63,65,67,69,71,73,75,77,79,81,83,-1,85,-1,-1,-1,-1,-1,-1,-1,-1,-1,-1,-1,-1,-1,-1,-1,-1,-1,-1,-1,-1,-1,-1,-1,-1,-1,-1,-1,-1,-1,-1,-1,-1,-1,-1,-1,-1],"loss_changes":[2.4071066E4,7.8295654E2,1.9250352E3,8.92334E-2,2.4702148E0,1.1347656E0,1.0644531E-1,7.93457E-3,1.0008621E-1,8.45459E-1,1.2099609E0,2.5585938E-1,8.1762695E-1,1.2207031E-2,2.9296875E-2,0E0,0E0,1.2084961E-2,0E0,3.388672E-1,1.5332031E-1,1.1401367E-1,5.0878906E-1,9.6191406E-2,2.3779297E-1,1.3427734E-1,1.083374E-1,0E0,0E0,4.5166016E-3,0E0,0E0,3.1921387E-2,1.9763184E-1,1.6792297E-2,1.22802734E-1,7.758484E-1,5.9814453E-3,3.1677246E-2,1.1608887E-1,6.384277E-2,4.1992188E-2,6.4849854E-4,6.298828E-2,2.3266602E-1,7.217407E-3,1.5673065E-1,1.7030334E-1,2.2888184E-2,0E0,1.1302185E-1,0E0,0E0,0E0,0E0,0E0,0E0,0E0,0E0,0E0,0E0,0E0,0E0,0E0,0E0,0E0,0E0,0E0,0E0,0E0,0E0,0E0,0E0,0E0,0E0,0E0,0E0,0E0,0E0,0E0,0E0,0E0,0E0,0E0,0E0,0E0,0E0],"parents":[2147483647,0,0,1,1,2,2,3,3,4,4,5,5,6,6,7,7,8,8,9,9,10,10,11,11,12,12,13,13,14,14,17,17,19,19,20,20,21,21,22,22,23,23,24,24,25,25,26,26,29,29,32,32,33,33,34,34,35,35,36,36,37,37,38,38,39,39,40,40,41,41,42,42,43,43,44,44,45,45,46,46,47,47,48,48,50,50],"right_children":[2,4,6,8,10,12,14,16,18,20,22,24,26,28,30,-1,-1,32,-1,34,36,38,40,42,44,46,48,-1,-1,50,-1,-1,52,54,56,58,60,62,64,66,68,70,72,74,76,78,80,82,84,-1,86,-1,-1,-1,-1,-1,-1,-1,-1,-1,-1,-1,-1,-1,-1,-1,-1,-1,-1,-1,-1,-1,-1,-1,-1,-1,-1,-1,-1,-1,-1,-1,-1,-1,-1,-1,-1],"split_conditions":[6E1,4E1,8E1,2.54E-1,1.770274E0,2.54E-1,2.494477E2,1.2E1,1.524E0,1.2E1,4.1681908E1,1.2E1,5.08E-1,6.43736E-1,1.670495E3,-8.575353E-3,-8.672145E-3,5.08E-1,-8.714434E-3,1.60934E0,2.54E-1,2.3818232E1,1.0661877E3,1.0661877E3,1.770274E0,2.3818232E1,7.62E-1,1.2901574E-2,1.308579E-2,2.54E-1,1.2637734E-2,-7.636053E-3,1.2E1,7.62E-1,2.54E-1,1.60934E0,7.62E-1,2.54E-1,1.9E1,2.494477E2,1.670495E3,1.60934E0,1.670495E3,1.60934E0,1.0661877E3,1.770274E0,2.494477E2,1.2E1,1.770274E0,1.2982619E-2,5.08E-1,-8.5765105E-3,-7.6612676E-3,-1.8206555E-3,-1.9549003E-3,-1.9726497E-3,-1.8475151E-3,-1.9056533E-3,-1.9849415E-3,-1.5803518E-3,-1.9926387E-3,-1.7243549E-3,-1.6998065E-3,-1.7575854E-3,-1.81197E-3,-1.8016376E-3,-1.8394891E-3,-1.9756462E-3,-2.140083E-3,6.2817237E-3,6.234446E-3,6.1231856E-3,5.9454446E-3,6.1951857E-3,6.118172E-3,6.3106134E-3,5.9849727E-3,5.6586307E-3,5.235862E-3,6.3082026E-3,5.5674776E-3,6.192727E-3,5.7458645E-3,6.132768E-3,6.2553356E-3,1.1965473E-2,1.2976502E-2],"split_indices":[0,0,0,2,1,2,1,5,2,5,1,5,2,1,1,0,0,2,0,1,2,1,1,1,1,1,2,0,0,2,0,0,5,2,2,1,2,2,5,1,1,1,1,1,1,1,1,5,1,0,2,0,0,0,0,0,0,0,0,0,0,0,0,0,0,0,0,0,0,0,0,0,0,0,0,0,0,0,0,0,0,0,0,0,0,0,0],"split_type":[0,0,0,0,0,0,0,0,0,0,0,0,0,0,0,0,0,0,0,0,0,0,0,0,0,0,0,0,0,0,0,0,0,0,0,0,0,0,0,0,0,0,0,0,0,0,0,0,0,0,0,0,0,0,0,0,0,0,0,0,0,0,0,0,0,0,0,0,0,0,0,0,0,0,0,0,0,0,0,0,0,0,0,0,0,0,0],"sum_hessian":[4.471628E6,3.520895E6,9.50733E5,4.3162E4,3.477733E6,8.32763E5,1.1797E5,4.1011E4,2.151E3,1.608343E6,1.86939E6,7.63362E5,6.9401E4,8.9195E4,2.8775E4,2.3512E4,1.7499E4,1.317E3,8.34E2,8.44409E5,7.63934E5,7.75017E5,1.094373E6,3.3112E5,4.32242E5,1.75E4,5.1901E4,6.36E3,8.2835E4,2.6225E4,2.55E3,6.15E2,7.02E2,7.97685E5,4.6724E4,7.17144E5,4.679E4,5.50036E5,2.24981E5,1.066559E6,2.7814E4,3.26275E5,4.845E3,3.51293E5,8.0949E4,1.4218E4,3.282E3,9.284E3,4.2617E4,2.4183E4,2.042E3,3.8E2,3.22E2,7.69051E5,2.8634E4,4.3585E4,3.139E3,6.63757E5,5.3387E4,1.9856E4,2.6934E4,5.18791E5,3.1245E4,1.92435E5,3.2546E4,7.8938E5,2.77179E5,1.8908E4,8.906E3,2.38733E5,8.7542E4,2.187E3,2.658E3,3.14173E5,3.712E4,7.4593E4,6.356E3,1.3934E4,2.84E2,2.007E3,1.275E3,4.312E3,4.972E3,3.4893E4,7.724E3,6.23E2,1.419E3],"tree_param":{"num_deleted":"0","num_feature":"9","num_nodes":"87","size_leaf_vector":"1"}},{"base_weights":[1.8823803E-5,7.487538E-3,-8.109057E-3,1.9362344E-3,1.3032444E-2,-1.719967E-2,-2.321588E-3,3.2828876E-4,2.4231153E-2,1.1852017E-2,3.3254106E-2,-1.9362707E-2,-1.2137107E-2,-3.7795883E-3,3.764883E-2,-1.0193285E-3,2.3157861E-2,2.2943541E-2,4.4217434E-2,1.2375654E-2,-3.1221569E-2,5.262145E-3,2.3855258E-2,-1.941769E-2,2.6385156E-2,-1.2280912E-2,5.0538197E-2,-5.7624034E-3,1.5769369E-3,2.5949642E-2,5.5244874E-2,-5.650129E-4,-3.0078739E-2,1.0337842E-1,1.4395922E-2,2.3657292E-2,-1.4631896E-3,5.3674043E-3,3.2286238E-2,1.1134375E-2,2.603554E-2,-3.5442587E-2,-3.1180229E-2,-2.9114943E-2,3.0999918E-2,-1.9723345E-2,-1.2306288E-2,9.506726E-3,3.6193572E-2,-5.585076E-3,-1.3499768E-2,5.7915095E-2,3.0888991E-2,-3.2106494E-3,-7.4989437E-3,1.35602355E-2,5.7838083E-4,2.2756072E-2,4.4832326E-2,6.027362E-2,1.7772997E-2,-1.3209806E-5,-1.2387431E-3,-1.512092E-3,-1.4539685E-3,5.130212E-3,5.3704856E-3,-4.8180716E-4,1.3760622E-3,1.5358976E-3,1.0731912E-3,-1.4368768E-3,2.0742535E-3,5.934457E-4,-1.2400007E-3,1.2852199E-3,1.4165834E-3,-1.4800708E-3,-2.000979E-3,-1.5717477E-3,-1.5439121E-3,-9.0289855E-4,-1.4608131E-3,9.109109E-4,2.0967387E-3,-9.768005E-4,-1.5323403E-3,4.9746507E-3,-6.812079E-4,-1.759004E-4,1.084146E-3,3.1987417E-3,1.1839088E-3,-2.922391E-4,1.8721012E-3,-7.339922E-4,-3.9692508E-4,1.1558314E-3,3.1590972E-3,2.341111E-3,4.8294276E-4,-1.8405612E-4,2.13281E-4,-4.7549797E-4,-1.8124879E-4,5.444537E-4,1.3333766E-3,-8.388308E-5,3.602578E-4,2.4880883E-3,1.0163327E-3,7.0593134E-4,2.5711104E-3,2.816588E-3,3.8899768E-3,3.024737E-4,1.671361E-3],"categories":[],"categories_nodes":[],"categories_segments":[],"categories_sizes":[],"default_left":[0,0,0,0,0,0,0,0,0,0,0,0,0,0,0,0,0,0,0,0,0,0,0,0,0,0,0,0,0,0,0,0,0,0,0,0,0,0,0,0,0,0,0,0,0,0,0,0,0,0,0,0,0,0,0,0,0,0,0,0,0,0,0,0,0,0,0,0,0,0,0,0,0,0,0,0,0,0,0,0,0,0,0,0,0,0,0,0,0,0,0,0,0,0,0,0,0,0,0,0,0,0,0,0,0,0,0,0,0,0,0,0,0,0,0,0,0],"id":15,"left_children":[1,3,5,7,9,11,13,15,17,19,21,23,25,27,29,31,33,35,37,39,41,-1,43,45,47,49,51,53,55,57,59,61,63,65,67,69,-1,-1,71,73,75,77,79,81,83,85,87,89,91,93,95,97,99,101,103,105,107,109,111,113,115,-1,-1,-1,-1,-1,-1,-1,-1,-1,-1,-1,-1,-1,-1,-1,-1,-1,-1,-1,-1,-1,-1,-1,-1,-1,-1,-1,-1,-1,-1,-1,-1,-1,-1,-1,-1,-1,-1,-1,-1,-1,-1,-1,-1,-1,-1,-1,-1,-1,-1,-1,-1,-1,-1,-1,-1],"loss_changes":[2.7143976E2,7.172769E1,1.1265436E2,4.1744095E1,2.7827103E1,9.120758E0,7.624476E1,3.34148E1,2.0148277E0,2.4844315E1,4.3502266E1,1.4684906E0,2.2479973E0,1.340662E1,9.477158E0,1.3539743E1,4.2550632E1,2.7429848E0,3.5668163E0,1.8451935E1,1.2044907E-3,0E0,2.1525105E1,1.2667236E0,1.1570698E-1,2.0302505E0,8.097768E-2,4.082264E0,4.080636E0,1.6668453E0,3.4637108E0,7.3539996E0,1.6927719E-3,7.5798035E-3,1.721604E1,1.1237411E0,0E0,0E0,2.2398453E0,2.633229E1,6.819534E-2,2.0502955E-3,3.8146973E-5,7.045746E-3,7.0036087E0,1.1430206E0,3.54083E0,4.115152E-2,1.5251344E-1,4.2834377E-1,1.3810997E0,7.441664E-2,5.2993566E-2,1.3122206E0,4.2707214E0,9.181018E-1,4.7062135E0,1.5512133E0,8.088722E-1,1.115551E0,3.9932662E-1,0E0,0E0,0E0,0E0,0E0,0E0,0E0,0E0,0E0,0E0,0E0,0E0,0E0,0E0,0E0,0E0,0E0,0E0,0E0,0E0,0E0,0E0,0E0,0E0,0E0,0E0,0E0,0E0,0E0,0E0,0E0,0E0,0E0,0E0,0E0,0E0,0E0,0E0,0E0,0E0,0E0,0E0,0E0,0E0,0E0,0E0,0E0,0E0,0E0,0E0,0E0,0E0,0E0,0E0,0E0,0E0],"parents":[2147483647,0,0,1,1,2,2,3,3,4,4,5,5,6,6,7,7,8,8,9,9,10,10,11,11,12,12,13,13,14,14,15,15,16,16,17,17,18,18,19,19,20,20,22,22,23,23,24,24,25,25,26,26,27,27,28,28,29,29,30,30,31,31,32,32,33,33,34,34,35,35,38,38,39,39,40,40,41,41,42,42,43,43,44,44,45,45,46,46,47,47,48,48,49,49,50,50,51,51,52,52,53,53,54,54,55,55,56,56,57,57,58,58,59,59,60,60],"right_children":[2,4,6,8,10,12,14,16,18,20,22,24,26,28,30,32,34,36,38,40,42,-1,44,46,48,50,52,54,56,58,60,62,64,66,68,70,-1,-1,72,74,76,78,80,82,84,86,88,90,92,94,96,98,100,102,104,106,108,110,112,114,116,-1,-1,-1,-1,-1,-1,-1,-1,-1,-1,-1,-1,-1,-1,-1,-1,-1,-1,-1,-1,-1,-1,-1,-1,-1,-1,-1,-1,-1,-1,-1,-1,-1,-1,-1,-1,-1,-1,-1,-1,-1,-1,-1,-1,-1,-1,-1,-1,-1,-1,-1,-1,-1,-1,-1,-1],"split_conditions":[1.770274E0,1.2E1,4.1681908E1,1.60934E0,1.524E1,2.3818232E1,1.0661877E3,1.524E1,1.524E1,1.016E1,2.032E1,3.057746E1,2.574944E1,2.494477E2,1.670495E3,1.016E1,2.032E1,1.016E1,2.032E1,1.60934E0,4.988954E-1,5.262145E-3,3.048E1,1.524E1,4.82802E1,7E0,3.6371082E1,1.2E1,5E0,1.8E1,2E0,6.43736E-1,2E0,2E0,4.572E1,7E0,-1.4631896E-3,5.3674043E-3,3.048E1,6.43736E-1,2.1E1,4.02335E-1,1.60934E1,4.988954E-1,7.62E1,1.016E1,2.032E1,1.1587248E1,5.793624E1,1.8288E2,1.9E1,2.5588507E1,1.5E1,1.524E1,1.8E1,6.51139E2,1.7E1,5E0,9.977908E0,1.8E1,1.770274E0,-1.3209806E-5,-1.2387431E-3,-1.512092E-3,-1.4539685E-3,5.130212E-3,5.3704856E-3,-4.8180716E-4,1.3760622E-3,1.5358976E-3,1.0731912E-3,-1.4368768E-3,2.0742535E-3,5.934457E-4,-1.2400007E-3,1.2852199E-3,1.4165834E-3,-1.4800708E-3,-2.000979E-3,-1.5717477E-3,-1.5439121E-3,-9.0289855E-4,-1.4608131E-3,9.109109E-4,2.0967387E-3,-9.768005E-4,-1.5323403E-3,4.9746507E-3,-6.812079E-4,-1.759004E-4,1.084146E-3,3.1987417E-3,1.1839088E-3,-2.922391E-4,1.8721012E-3,-7.339922E-4,-3.9692508E-4,1.1558314E-3,3.1590972E-3,2.341111E-3,4.8294276E-4,-1.8405612E-4,2.13281E-4,-4.7549797E-4,-1.8124879E-4,5.444537E-4,1.3333766E-3,-8.388308E-5,3.602578E-4,2.4880883E-3,1.0163327E-3,7.0593134E-4,2.5711104E-3,2.816588E-3,3.8899768E-3,3.024737E-4,1.671361E-3],"split_indices":[1,5,1,1,7,1,1,7,7,7,7,3,3,1,1,7,7,7,7,1,3,0,7,7,3,5,1,5,5,5,4,1,4,4,7,5,0,0,7,1,5,3,3,3,7,7,7,1,3,7,5,8,5,7,5,1,5,5,3,5,3,0,0,0,0,0,0,0,0,0,0,0,0,0,0,0,0,0,0,0,0,0,0,0,0,0,0,0,0,0,0,0,0,0,0,0,0,0,0,0,0,0,0,0,0,0,0,0,0,0,0,0,0,0,0,0,0],"split_type":[0,0,0,0,0,0,0,0,0,0,0,0,0,0,0,0,0,0,0,0,0,0,0,0,0,0,0,0,0,0,0,0,0,0,0,0,0,0,0,0,0,0,0,0,0,0,0,0,0,0,0,0,0,0,0,0,0,0,0,0,0,0,0,0,0,0,0,0,0,0,0,0,0,0,0,0,0,0,0,0,0,0,0,0,0,0,0,0,0,0,0,0,0,0,0,0,0,0,0,0,0,0,0,0,0,0,0,0,0,0,0,0,0,0,0,0,0],"sum_hessian":[4.471468E6,2.330224E6,2.141244E6,1.164441E6,1.165783E6,8.32928E5,1.308316E6,1.08611E6,7.8331E4,1.101486E6,6.4297E4,5.83583E5,2.49345E5,1.262273E6,4.6043E4,1.025572E6,6.0538E4,7.3592E4,4.739E3,1.088257E6,1.3229E4,7.424E3,5.6873E4,5.82883E5,7E2,2.48775E5,5.7E2,9.21254E5,3.41019E5,2.7657E4,1.8386E4,1.009786E6,1.5786E4,5.96E3,5.4578E4,7.26E4,9.92E2,7.52E2,3.987E3,9.97606E5,9.0651E4,1.2E2,1.3109E4,6.759E3,5.0114E4,5.58861E5,2.4022E4,2.58E2,4.42E2,3.8312E4,2.10463E5,4.13E2,1.57E2,3.73062E5,5.48192E5,2.623E4,3.14789E5,2.3658E4,3.999E3,1.621E4,2.176E3,9.97394E5,1.2392E4,1.3546E4,2.24E3,5.022E3,9.38E2,1.9279E4,3.5299E4,1.7205E4,5.5395E4,5.22E2,3.465E3,9.77623E5,1.9983E4,7.9236E4,1.1415E4,5.6E1,6.4E1,7.055E3,6.054E3,6.3E1,6.696E3,2.3107E4,2.7007E4,5.49441E5,9.42E3,2.79E2,2.3743E4,1.25E2,1.33E2,1.36E2,3.06E2,3.8083E4,2.29E2,1.7362E5,3.6843E4,5.5E1,3.58E2,8.9E1,6.8E1,3.50976E5,2.2086E4,3.60863E5,1.87329E5,2.1791E4,4.439E3,2.3484E5,7.9949E4,1.951E3,2.1707E4,7.07E2,3.292E3,1.3237E4,2.973E3,1.245E3,9.31E2],"tree_param":{"num_deleted":"0","num_feature":"9","num_nodes":"117","size_leaf_vector":"1"}},{"base_weights":[-7.87592E-6,7.0983088E-3,-7.743473E-3,5.9054303E-3,2.734226E-2,-1.6608674E-2,-2.3012308E-3,4.5189513E-3,2.296736E-2,1.0337445E-1,1.8089095E-2,-1.8687183E-2,-1.21788345E-2,-3.7981344E-3,3.2166626E-2,5.0329934E-3,-3.1345677E-2,2.3584556E-2,-1.4336118E-3,5.114296E-3,1.0830758E-2,-3.151773E-2,2.5455788E-2,-1.874497E-2,2.6626762E-2,-1.2305919E-2,4.6601303E-2,-5.590627E-3,9.1346924E-4,2.235894E-2,5.1838472E-2,5.500454E-3,-2.3726583E-2,-7.1781315E-3,-2.9086767E-2,2.3262817E-2,2.8556848E-2,-1.4168147E-3,-7.768241E-3,1.115425E-1,1.85617E-2,-2.0024752E-2,-1.793458E-2,1.3276593E-2,3.3916816E-2,-1.3715395E-2,-1.0104489E-2,2.3633271E-2,5.6111634E-2,-6.0617956E-3,2.4234767E-3,3.9074905E-4,2.2287238E-2,1.7244015E-2,2.7479878E-2,5.6628197E-2,1.7381445E-2,2.6726557E-4,9.5804874E-4,-9.668569E-4,-1.2520294E-3,-1.3953488E-3,-7.5471657E-3,8.4245874E-4,1.1793748E-3,6.4755697E-4,1.5163749E-3,5.529754E-3,1.1527365E-2,-1.9751794E-3,1.5750211E-3,-1.0041974E-3,-4.9179787E-4,-9.0553565E-4,-6.256206E-4,1.0392545E-3,-7.9287804E-4,2.0172184E-3,-1.051436E-4,-6.938027E-4,2.7124592E-4,-5.267961E-4,-7.401354E-5,1.6035329E-3,6.222473E-4,3.1310336E-3,8.5500005E-4,-2.7632387E-4,-1.7076836E-3,8.331567E-3,-3.3652555E-4,3.633873E-5,-1.865433E-3,8.595398E-3,2.2861683E-4,2.7148062E-4,9.48362E-4,5.533525E-4,1.4263907E-3,2.4674456E-3,3.2129213E-3,1.7518041E-4,1.8160352E-3],"categories":[],"categories_nodes":[],"categories_segments":[],"categories_sizes":[],"default_left":[0,0,0,0,0,0,0,0,0,0,0,0,0,0,0,0,0,0,0,0,0,0,0,0,0,0,0,0,0,0,0,0,0,0,0,0,0,0,0,0,0,0,0,0,0,0,0,0,0,0,0,0,0,0,0,0,0,0,0,0,0,0,0,0,0,0,0,0,0,0,0,0,0,0,0,0,0,0,0,0,0,0,0,0,0,0,0,0,0,0,0,0,0,0,0,0,0,0,0,0,0,0,0],"id":16,"left_children":[1,3,5,7,9,11,13,15,17,19,21,23,25,27,29,31,33,35,-1,-1,-1,37,39,41,43,45,47,49,51,53,55,57,59,-1,61,63,65,-1,-1,67,69,71,73,75,77,79,81,83,85,87,89,91,93,95,97,99,101,-1,-1,-1,-1,-1,-1,-1,-1,-1,-1,-1,-1,-1,-1,-1,-1,-1,-1,-1,-1,-1,-1,-1,-1,-1,-1,-1,-1,-1,-1,-1,-1,-1,-1,-1,-1,-1,-1,-1,-1,-1,-1,-1,-1,-1,-1],"loss_changes":[2.456725E2,5.6250214E1,1.032388E2,5.203669E1,9.119008E1,7.494095E0,6.8408875E1,3.750641E1,5.269661E0,1.7113342E0,4.2229748E1,1.4511566E0,1.9423561E0,1.0731667E1,1.0645973E1,2.6964207E1,7.2828426E0,2.6068878E-1,0E0,0E0,0E0,5.8829174E0,5.971244E1,5.734863E-1,6.826007E-2,8.046913E-1,1.21215105E-1,3.475811E0,3.912568E0,9.6414185E-1,3.0289764E0,4.182583E0,1.845398E-1,0E0,4.0472393E0,3.191223E-1,2.7382946E-1,0E0,0E0,8.1560516E-1,6.998923E1,1.2918091E-1,3.2331085E-1,5.523678E-2,1.0565722E-1,4.8634338E-1,3.7671566E-1,1.5271321E-2,9.94848E-2,1.3073713E1,7.683349E1,4.330418E0,2.215753E1,3.750496E-1,3.161745E-1,8.9206696E-1,5.89151E-1,0E0,0E0,0E0,0E0,0E0,0E0,0E0,0E0,0E0,0E0,0E0,0E0,0E0,0E0,0E0,0E0,0E0,0E0,0E0,0E0,0E0,0E0,0E0,0E0,0E0,0E0,0E0,0E0,0E0,0E0,0E0,0E0,0E0,0E0,0E0,0E0,0E0,0E0,0E0,0E0,0E0,0E0,0E0,0E0,0E0,0E0],"parents":[2147483647,0,0,1,1,2,2,3,3,4,4,5,5,6,6,7,7,8,8,9,9,10,10,11,11,12,12,13,13,14,14,15,15,16,16,17,17,21,21,22,22,23,23,24,24,25,25,26,26,27,27,28,28,29,29,30,30,31,31,32,32,34,34,35,35,36,36,39,39,40,40,41,41,42,42,43,43,44,44,45,45,46,46,47,47,48,48,49,49,50,50,51,51,52,52,53,53,54,54,55,55,56,56],"right_children":[2,4,6,8,10,12,14,16,18,20,22,24,26,28,30,32,34,36,-1,-1,-1,38,40,42,44,46,48,50,52,54,56,58,60,-1,62,64,66,-1,-1,68,70,72,74,76,78,80,82,84,86,88,90,92,94,96,98,100,102,-1,-1,-1,-1,-1,-1,-1,-1,-1,-1,-1,-1,-1,-1,-1,-1,-1,-1,-1,-1,-1,-1,-1,-1,-1,-1,-1,-1,-1,-1,-1,-1,-1,-1,-1,-1,-1,-1,-1,-1,-1,-1,-1,-1,-1,-1],"split_conditions":[1.770274E0,1.524E1,4.02335E1,1.60934E0,5.08E-1,2.3818232E1,9.750991E2,2.54E-1,2.54E-1,2.032E1,3.048E1,3.057746E1,2.574944E1,2.3818233E2,1.670495E3,6.43736E-1,1.016E1,1E0,-1.4336118E-3,5.114296E-3,1.0830758E-2,7.62E-1,7.62E-1,8.690436E0,4.82802E1,3.21868E1,4.82802E1,1.524E1,7.62E1,1.1978318E3,2E0,2E0,9.65604E-1,-7.1781315E-3,5.08E-1,9.977908E0,1.287472E0,-1.4168147E-3,-7.768241E-3,4.064E1,4.572E1,1.2192E2,1.524E1,3.540548E1,1.0138842E2,2.4384E2,1.524E1,3.138213E1,3.7658558E1,2.54E-1,5.08E-1,1.27E0,2.032E0,9.977908E2,1.770274E0,2.3433599E3,1.770274E0,2.6726557E-4,9.5804874E-4,-9.668569E-4,-1.2520294E-3,-1.3953488E-3,-7.5471657E-3,8.4245874E-4,1.1793748E-3,6.4755697E-4,1.5163749E-3,5.529754E-3,1.1527365E-2,-1.9751794E-3,1.5750211E-3,-1.0041974E-3,-4.9179787E-4,-9.0553565E-4,-6.256206E-4,1.0392545E-3,-7.9287804E-4,2.0172184E-3,-1.051436E-4,-6.938027E-4,2.7124592E-4,-5.267961E-4,-7.401354E-5,1.6035329E-3,6.222473E-4,3.1310336E-3,8.5500005E-4,-2.7632387E-4,-1.7076836E-3,8.331567E-3,-3.3652555E-4,3.633873E-5,-1.865433E-3,8.595398E-3,2.2861683E-4,2.7148062E-4,9.48362E-4,5.533525E-4,1.4263907E-3,2.4674456E-3,3.2129213E-3,1.7518041E-4,1.8160352E-3],"split_indices":[1,7,1,1,2,8,1,2,2,7,7,3,3,1,1,1,7,4,0,0,0,2,2,8,3,1,3,7,7,1,4,4,1,0,2,3,3,0,0,7,7,7,7,3,3,7,7,1,8,2,2,2,2,8,3,1,3,0,0,0,0,0,0,0,0,0,0,0,0,0,0,0,0,0,0,0,0,0,0,0,0,0,0,0,0,0,0,0,0,0,0,0,0,0,0,0,0,0,0,0,0,0,0],"split_type":[0,0,0,0,0,0,0,0,0,0,0,0,0,0,0,0,0,0,0,0,0,0,0,0,0,0,0,0,0,0,0,0,0,0,0,0,0,0,0,0,0,0,0,0,0,0,0,0,0,0,0,0,0,0,0,0,0,0,0,0,0,0,0,0,0,0,0,0,0,0,0,0,0,0,0,0,0,0,0,0,0,0,0,0,0,0,0,0,0,0,0,0,0,0,0,0,0,0,0,0,0,0,0],"sum_hessian":[4.469161E6,2.329345E6,2.139816E6,2.199727E6,1.29618E5,8.13939E5,1.325877E6,2.034409E6,1.65318E5,1.4062E4,1.15556E5,5.53997E5,2.59942E5,1.270693E6,5.5184E4,2.005663E6,2.8746E4,1.63366E5,1.952E3,1.393E4,1.32E2,1.4941E4,1.00615E5,5.53292E5,7.05E2,2.59382E5,5.6E2,9.20497E5,3.50196E5,3.6826E4,1.8358E4,1.973585E6,3.2078E4,5.66E2,2.818E4,1.53443E5,9.923E3,1.4568E4,3.73E2,7.459E3,9.3156E4,2.1451E5,3.38782E5,2.5E2,4.55E2,1.58132E5,1.0125E5,1.65E2,3.95E2,8.69384E5,5.1113E4,3.41837E5,8.359E3,1.8426E4,1.84E4,1.6117E4,2.241E3,1.951424E6,2.2161E4,7.394E3,2.4684E4,2.7911E4,2.69E2,7.396E3,1.46047E5,1.012E3,8.911E3,7.402E3,5.7E1,1.6975E4,7.6181E4,2.1327E5,1.24E3,3.28121E5,1.0661E4,1.99E2,5.1E1,3.86E2,6.9E1,1.56816E5,1.316E3,9.6426E4,4.824E3,9.3E1,7.2E1,3.38E2,5.7E1,8.53128E5,1.6256E4,2.698E3,4.8415E4,3.38818E5,3.019E3,8.84E2,7.475E3,2.346E3,1.608E4,1.105E3,1.7295E4,8.252E3,7.865E3,1.294E3,9.47E2],"tree_param":{"num_deleted":"0","num_feature":"9","num_nodes":"103","size_leaf_vector":"1"}},{"base_weights":[1.3267597E-5,-3.597776E-2,1.3342537E-1,-1.6363528E-1,-3.439965E-2,1.17103115E-1,2.4800101E-1,-8.209619E-3,-1.5268877E-1,-3.6035515E-2,-3.2992896E-2,1.17773965E-1,1.0970912E-1,2.4848631E-1,2.3865685E-1,-1.437909E-1,-8.349078E-3,-3.5783697E-2,-3.970597E-2,-3.1244015E-2,-3.4186885E-2,1.178649E-1,1.06648296E-1,9.951511E-2,1.1315583E-1,2.4887335E-1,2.430761E-1,1.20913E-2,1.1724118E-2,-1.4152533E-1,-8.263322E-3,-3.5935275E-2,-2.897447E-2,-4.0028132E-2,-3.4754667E-2,-3.0840019E-2,-3.230739E-2,-3.399075E-2,-4.183691E-2,1.1736546E-1,1.2010307E-1,5.312474E-3,5.697174E-3,4.8570307E-3,1.0978365E-1,1.11864574E-1,1.1886087E-1,2.5053328E-1,1.2397497E-2,2.3386222E-1,1.2351137E-2,-6.820911E-3,-7.3021664E-3,-1.7906917E-3,-2.028343E-3,-1.4302093E-3,-1.9963863E-3,-1.9989987E-3,-2.04093E-3,-1.3606882E-3,-2.0735818E-3,-1.5416134E-3,-2.0393676E-3,-1.6144412E-3,-2.3426018E-3,-1.6810626E-3,-1.7531516E-3,-2.0010557E-3,-2.2828174E-3,5.8906963E-3,5.6804772E-3,6.0485126E-3,5.9023583E-3,5.644573E-3,5.239614E-3,5.2524293E-3,5.6658247E-3,5.9987493E-3,5.3898636E-3,1.2266438E-2,1.2575238E-2,1.0289413E-2,1.1782019E-2],"categories":[],"categories_nodes":[],"categories_segments":[],"categories_sizes":[],"default_left":[0,0,0,0,0,0,0,0,0,0,0,0,0,0,0,0,0,0,0,0,0,0,0,0,0,0,0,0,0,0,0,0,0,0,0,0,0,0,0,0,0,0,0,0,0,0,0,0,0,0,0,0,0,0,0,0,0,0,0,0,0,0,0,0,0,0,0,0,0,0,0,0,0,0,0,0,0,0,0,0,0,0,0],"id":17,"left_children":[1,3,5,7,9,11,13,-1,15,17,19,21,23,25,27,29,-1,31,33,35,37,39,41,43,45,47,49,-1,-1,51,-1,53,55,57,59,61,63,65,67,69,71,-1,-1,-1,73,75,77,79,-1,81,-1,-1,-1,-1,-1,-1,-1,-1,-1,-1,-1,-1,-1,-1,-1,-1,-1,-1,-1,-1,-1,-1,-1,-1,-1,-1,-1,-1,-1,-1,-1,-1,-1],"loss_changes":[2.1463535E4,7.0919336E2,1.7760293E3,2.3706055E-1,8.001465E0,4.109375E0,4.7753906E-1,0E0,2.425499E-1,1.4846191E0,3.902832E0,7.5878906E-1,2.4187622E0,1.7529297E-1,2.0996094E-2,3.9812088E-2,0E0,1.5518799E0,1.6325378E-1,3.2495117E-1,1.6657715E0,8.310547E-1,5.9051514E-3,4.156494E-1,3.673706E-1,9.863281E-2,2.170105E-1,0E0,0E0,7.3509216E-3,0E0,8.2629395E-1,1.3175964E-1,2.0751953E-3,3.1863737E-1,4.107666E-2,5.4870605E-2,4.2797852E-1,1.907692E-1,1.0273438E0,2.3156738E-1,0E0,0E0,0E0,3.8986206E-2,4.0533447E-1,1.0443115E-1,1.2768555E-1,0E0,6.5574646E-2,0E0,0E0,0E0,0E0,0E0,0E0,0E0,0E0,0E0,0E0,0E0,0E0,0E0,0E0,0E0,0E0,0E0,0E0,0E0,0E0,0E0,0E0,0E0,0E0,0E0,0E0,0E0,0E0,0E0,0E0,0E0,0E0,0E0],"parents":[2147483647,0,0,1,1,2,2,3,3,4,4,5,5,6,6,8,8,9,9,10,10,11,11,12,12,13,13,14,14,15,15,17,17,18,18,19,19,20,20,21,21,22,22,23,23,24,24,25,25,26,26,29,29,31,31,32,32,33,33,34,34,35,35,36,36,37,37,38,38,39,39,40,40,44,44,45,45,46,46,47,47,49,49],"right_children":[2,4,6,8,10,12,14,-1,16,18,20,22,24,26,28,30,-1,32,34,36,38,40,42,44,46,48,50,-1,-1,52,-1,54,56,58,60,62,64,66,68,70,72,-1,-1,-1,74,76,78,80,-1,82,-1,-1,-1,-1,-1,-1,-1,-1,-1,-1,-1,-1,-1,-1,-1,-1,-1,-1,-1,-1,-1,-1,-1,-1,-1,-1,-1,-1,-1,-1,-1,-1,-1],"split_conditions":[6E1,4E1,8E1,2.54E-1,1.770274E0,2.54E-1,1.0661877E3,-8.209619E-3,1.524E0,1.60934E0,4.02335E1,1.670495E3,5.08E-1,2.54E-1,1.670495E3,1.770274E0,-8.349078E-3,6.43736E-1,2.54E-1,2.3818232E1,1.0661877E3,1.770274E0,2E0,2.3818232E1,1.770274E0,4.02335E1,5.08E-1,1.20913E-2,1.1724118E-2,5.08E-1,-8.263322E-3,1.27E0,7.62E-1,1E0,7.62E-1,3.057746E1,2.574944E1,2.494477E2,1.670495E3,1.60934E0,2.494477E2,5.312474E-3,5.697174E-3,4.8570307E-3,2.494477E2,7.62E-1,1.0661877E3,6.43736E-1,1.2397497E-2,1.770274E0,1.2351137E-2,-6.820911E-3,-7.3021664E-3,-1.7906917E-3,-2.028343E-3,-1.4302093E-3,-1.9963863E-3,-1.9989987E-3,-2.04093E-3,-1.3606882E-3,-2.0735818E-3,-1.5416134E-3,-2.0393676E-3,-1.6144412E-3,-2.3426018E-3,-1.6810626E-3,-1.7531516E-3,-2.0010557E-3,-2.2828174E-3,5.8906963E-3,5.6804772E-3,6.0485126E-3,5.9023583E-3,5.644573E-3,5.239614E-3,5.2524293E-3,5.6658247E-3,5.9987493E-3,5.3898636E-3,1.2266438E-2,1.2575238E-2,1.0289413E-2,1.1782019E-2],"split_indices":[0,0,0,2,1,2,1,0,2,1,1,1,2,2,1,1,0,1,2,1,1,1,4,1,1,1,2,0,0,2,0,2,2,4,2,3,3,1,1,1,1,0,0,0,1,2,1,1,0,1,0,0,0,0,0,0,0,0,0,0,0,0,0,0,0,0,0,0,0,0,0,0,0,0,0,0,0,0,0,0,0,0,0],"split_type":[0,0,0,0,0,0,0,0,0,0,0,0,0,0,0,0,0,0,0,0,0,0,0,0,0,0,0,0,0,0,0,0,0,0,0,0,0,0,0,0,0,0,0,0,0,0,0,0,0,0,0,0,0,0,0,0,0,0,0,0,0,0,0,0,0,0,0,0,0,0,0,0,0,0,0,0,0,0,0,0,0,0,0],"sum_hessian":[4.470042E6,3.520347E6,9.49695E5,4.2986E4,3.477361E6,8.31275E5,1.1842E5,4.0891E4,2.095E3,1.607746E6,1.869615E6,7.62114E5,6.9161E4,1.12549E5,5.871E3,1.298E3,7.97E2,1.504535E6,1.03211E5,7.58557E5,1.111058E6,7.55926E5,6.188E3,1.7483E4,5.1678E4,1.04993E5,7.556E3,3.305E3,2.566E3,1.181E3,1.17E2,1.471768E6,3.2767E4,9.6899E4,6.312E3,5.49733E5,2.08824E5,1.083289E6,2.7769E4,6.1806E5,1.37866E5,5.882E3,3.06E2,1.4208E4,3.275E3,4.2157E4,9.521E3,3.7433E4,6.756E4,2.284E3,5.272E3,5.69E2,6.12E2,1.434172E6,3.7596E4,3.1699E4,1.068E3,9.1383E4,5.516E3,2.976E3,3.336E3,5.49309E5,4.24E2,2.08561E5,2.63E2,8.05691E5,2.77598E5,1.8829E4,8.94E3,5.52106E5,6.5954E4,9.6925E4,4.0941E4,2.005E3,1.27E3,7.416E3,3.4741E4,8.641E3,8.8E2,5.928E3,3.1505E4,1.43E2,2.141E3],"tree_param":{"num_deleted":"0","num_feature":"9","num_nodes":"83","size_leaf_vector":"1"}},{"base_weights":[2.7132432E-5,-3.4183115E-2,1.2673543E-1,-1.5542059E-1,-3.268E-2,1.1124803E-1,2.3559661E-1,-1.5573932E-1,-1.5129803E-1,-3.421013E-2,-3.1374685E-2,1.1188928E-1,1.0419652E-1,2.3613508E-1,1.1413215E-2,-7.7392436E-3,-1.5700495E-1,-1.4961247E-1,-7.919221E-3,-3.329665E-2,-3.5219505E-2,-2.9768312E-2,-3.244064E-2,1.1198192E-1,1.0355622E-1,9.445621E-2,1.0749002E-1,2.364629E-1,2.3119372E-1,-7.856958E-3,-1.4665279E-1,-7.5857826E-3,-1.41171E-1,-3.3080634E-2,-3.7232626E-2,-3.5385173E-2,-3.251375E-2,-2.943559E-2,-3.0579671E-2,-3.225211E-2,-3.7223466E-2,1.1151526E-1,1.14133954E-1,1.01968706E-1,1.08632915E-1,4.6150493E-3,1.0367901E-1,1.0627775E-1,1.1287791E-1,2.380063E-1,1.1780565E-2,2.2278495E-1,1.1747566E-2,-6.429491E-3,-7.914326E-3,-7.4554756E-3,-6.5610977E-3,-1.6476027E-3,-1.9031739E-3,-1.86836E-3,-1.5636407E-3,-1.7603567E-3,-1.8782286E-3,-1.2635088E-3,-1.8956751E-3,-1.4679524E-3,-1.6078716E-3,-1.5281186E-3,-2.214491E-3,-1.5948383E-3,-1.6569889E-3,-2.0153774E-3,-1.7048119E-3,5.59615E-3,5.408594E-3,5.744272E-3,5.6205196E-3,5.2974056E-3,5.0408905E-3,5.5687404E-3,5.279769E-3,5.3073764E-3,5.0753215E-3,4.9890676E-3,5.383301E-3,5.692495E-3,5.1353034E-3,1.1652341E-2,1.1947226E-2,1.0409296E-2,1.1319282E-2],"categories":[],"categories_nodes":[],"categories_segments":[],"categories_sizes":[],"default_left":[0,0,0,0,0,0,0,0,0,0,0,0,0,0,0,0,0,0,0,0,0,0,0,0,0,0,0,0,0,0,0,0,0,0,0,0,0,0,0,0,0,0,0,0,0,0,0,0,0,0,0,0,0,0,0,0,0,0,0,0,0,0,0,0,0,0,0,0,0,0,0,0,0,0,0,0,0,0,0,0,0,0,0,0,0,0,0,0,0,0,0],"id":18,"left_children":[1,3,5,7,9,11,13,15,17,19,21,23,25,27,-1,-1,29,31,-1,33,35,37,39,41,43,45,47,49,51,-1,53,-1,55,57,59,61,63,65,67,69,71,73,75,77,79,-1,81,83,85,87,-1,89,-1,-1,-1,-1,-1,-1,-1,-1,-1,-1,-1,-1,-1,-1,-1,-1,-1,-1,-1,-1,-1,-1,-1,-1,-1,-1,-1,-1,-1,-1,-1,-1,-1,-1,-1,-1,-1,-1,-1],"loss_changes":[1.9373512E4,6.4131494E2,1.6019238E3,3.3081055E-2,6.9418945E0,3.75E0,4.140625E-1,2.3986816E-2,1.3671875E-2,1.4741211E0,3.2111816E0,5.7714844E-1,2.2147217E0,1.23046875E-1,0E0,0E0,7.324219E-4,2.3765564E-2,0E0,7.1307373E-1,3.3972168E-1,2.0111084E-1,1.0155029E0,7.451172E-1,5.659485E-2,3.3894348E-1,3.2641602E-1,8.0078125E-2,1.6571045E-1,0E0,2.8818607E-2,0E0,2.1661758E-2,5.0891113E-1,3.387451E-2,2.765503E-1,1.7150307E0,1.0964966E-1,5.0247192E-2,3.4118652E-1,4.1099167E-1,8.3203125E-1,1.6113281E-1,1.8684387E-2,4.770279E-3,0E0,6.99234E-3,3.7094116E-1,8.226013E-2,1.14746094E-1,0E0,6.594849E-2,0E0,0E0,0E0,0E0,0E0,0E0,0E0,0E0,0E0,0E0,0E0,0E0,0E0,0E0,0E0,0E0,0E0,0E0,0E0,0E0,0E0,0E0,0E0,0E0,0E0,0E0,0E0,0E0,0E0,0E0,0E0,0E0,0E0,0E0,0E0,0E0,0E0,0E0,0E0],"parents":[2147483647,0,0,1,1,2,2,3,3,4,4,5,5,6,6,7,7,8,8,9,9,10,10,11,11,12,12,13,13,16,16,17,17,19,19,20,20,21,21,22,22,23,23,24,24,25,25,26,26,27,27,28,28,30,30,32,32,33,33,34,34,35,35,36,36,37,37,38,38,39,39,40,40,41,41,42,42,43,43,44,44,46,46,47,47,48,48,49,49,51,51],"right_children":[2,4,6,8,10,12,14,16,18,20,22,24,26,28,-1,-1,30,32,-1,34,36,38,40,42,44,46,48,50,52,-1,54,-1,56,58,60,62,64,66,68,70,72,74,76,78,80,-1,82,84,86,88,-1,90,-1,-1,-1,-1,-1,-1,-1,-1,-1,-1,-1,-1,-1,-1,-1,-1,-1,-1,-1,-1,-1,-1,-1,-1,-1,-1,-1,-1,-1,-1,-1,-1,-1,-1,-1,-1,-1,-1,-1],"split_conditions":[6E1,4E1,8E1,1E0,1.931208E0,1.016E1,9.977908E2,1.2E1,3.048E1,1.2E1,4.1520973E1,1.4883176E3,2.032E1,1.016E1,1.1413215E-2,-7.7392436E-3,1.016E1,1.016E1,-7.919221E-3,1.60934E0,1.016E1,2.3818232E1,1.0806718E3,4.988954E0,1E0,2.3818232E1,4.988954E0,4.07163E1,3.048E1,-7.856958E-3,3.048E1,-7.5857826E-3,1.2E1,4.572E1,1.016E1,1.60934E0,3.048E1,3.048E1,2.574944E1,2.489649E2,1E0,1.60934E0,2.489649E2,1.7573993E3,3.2743633E3,4.6150493E-3,2.489649E2,4.064E1,2.2064053E3,6.43736E-1,1.1780565E-2,2.3818232E1,1.1747566E-2,-6.429491E-3,-7.914326E-3,-7.4554756E-3,-6.5610977E-3,-1.6476027E-3,-1.9031739E-3,-1.86836E-3,-1.5636407E-3,-1.7603567E-3,-1.8782286E-3,-1.2635088E-3,-1.8956751E-3,-1.4679524E-3,-1.6078716E-3,-1.5281186E-3,-2.214491E-3,-1.5948383E-3,-1.6569889E-3,-2.0153774E-3,-1.7048119E-3,5.59615E-3,5.408594E-3,5.744272E-3,5.6205196E-3,5.2974056E-3,5.0408905E-3,5.5687404E-3,5.279769E-3,5.3073764E-3,5.0753215E-3,4.9890676E-3,5.383301E-3,5.692495E-3,5.1353034E-3,1.1652341E-2,1.1947226E-2,1.0409296E-2,1.1319282E-2],"split_indices":[0,0,0,4,8,7,8,5,7,5,8,8,7,7,0,0,7,7,0,8,7,8,8,8,4,8,8,8,7,0,7,0,5,7,7,8,7,7,3,8,4,8,8,8,8,0,8,7,8,8,0,8,0,0,0,0,0,0,0,0,0,0,0,0,0,0,0,0,0,0,0,0,0,0,0,0,0,0,0,0,0,0,0,0,0,0,0,0,0,0,0],"split_type":[0,0,0,0,0,0,0,0,0,0,0,0,0,0,0,0,0,0,0,0,0,0,0,0,0,0,0,0,0,0,0,0,0,0,0,0,0,0,0,0,0,0,0,0,0,0,0,0,0,0,0,0,0,0,0,0,0,0,0,0,0,0,0,0,0,0,0,0,0,0,0,0,0,0,0,0,0,0,0,0,0,0,0,0,0,0,0,0,0,0,0],"sum_hessian":[4.469376E6,3.519216E6,9.5016E5,4.3096E4,3.47612E6,8.31821E5,1.18339E5,3.9969E4,3.127E3,1.600241E6,1.875879E6,7.62469E5,6.9352E4,1.10214E5,8.125E3,2.2856E4,1.7113E4,2.544E3,5.83E2,8.4004E5,7.60201E5,7.48273E5,1.127606E6,7.54073E5,8.396E3,1.7532E4,5.182E4,1.03313E5,6.901E3,1.688E4,2.33E2,2.023E3,5.21E2,7.96344E5,4.3696E4,7.1633E5,4.3871E4,5.30686E5,2.17587E5,1.084851E6,4.2755E4,6.19738E5,1.34335E5,6.412E3,1.984E3,1.422E4,3.312E3,4.2319E4,9.501E3,3.6637E4,6.6676E4,2.15E3,4.751E3,9.6E1,1.37E2,2.82E2,2.39E2,7.76319E5,2.0025E4,4.2726E4,9.7E2,6.62247E5,5.4083E4,1.8739E4,2.5132E4,5.16182E5,1.4504E4,2.17316E5,2.71E2,7.74748E5,3.10103E5,2.152E4,2.1235E4,5.52345E5,6.7393E4,9.3502E4,4.0833E4,1.418E3,4.994E3,1.024E3,9.6E2,1.528E3,1.784E3,7.464E3,3.4855E4,8.663E3,8.38E2,5.868E3,3.0769E4,4.37E2,1.713E3],"tree_param":{"num_deleted":"0","num_feature":"9","num_nodes":"91","size_leaf_vector":"1"}},{"base_weights":[1.1489704E-5,6.126943E-3,-6.6503924E-3,1.4286635E-3,1.0819822E-2,-1.4031606E-2,-1.9550112E-3,1.1171038E-4,1.9717583E-2,9.868783E-3,2.1368124E-2,-1.5750932E-2,-1.0005728E-2,-3.3677202E-3,2.5185846E-2,-6.117958E-4,9.655622E-3,2.589405E-2,1.7726948E-2,1.047491E-2,-2.0228444E-2,2.0878531E-2,2.6381977E-2,-1.5800834E-2,2.5711248E-2,-1.0142657E-2,3.2474585E-2,-4.906301E-3,2.7888932E-4,1.737828E-2,4.4670068E-2,9.376511E-3,-1.0619054E-3,1.0001779E-2,-2.4513807E-2,2.5031919E-2,3.3975054E-2,1.69216E-2,2.3663035E-2,9.736471E-3,1.6935026E-2,-1.593142E-2,-2.1365587E-2,1.343281E-2,2.111781E-2,2.3506083E-2,3.107426E-2,-1.439888E-2,-1.6602896E-2,1.0696992E-2,3.3357114E-2,-6.652139E-3,-1.181711E-2,1.7305026E-2,4.679004E-2,-2.7235355E-3,-6.386618E-3,1.0034378E-2,-5.5600156E-4,1.4005819E-2,3.0634742E-2,4.881702E-2,1.4747653E-2,6.009334E-4,-1.0641429E-3,-1.3679957E-4,1.2227007E-4,3.9949393E-4,7.434717E-4,-9.238247E-4,-1.4856472E-3,5.534382E-4,1.2731596E-3,2.497947E-3,1.6585073E-3,4.0433338E-4,8.7778934E-4,7.661628E-4,1.2336646E-3,4.497978E-4,7.4377126E-4,7.7983644E-4,1.3513415E-3,-9.6755783E-4,-7.403455E-4,-1.0446304E-3,-1.6210632E-3,4.5515067E-4,9.916489E-4,1.4036702E-3,1.0487218E-3,1.3710548E-3,1.09541E-3,1.9869914E-3,1.4681419E-3,-8.0409547E-4,-5.8999547E-4,-8.761063E-4,-7.5543247E-4,1.0229652E-3,-1.1484519E-4,1.9220507E-3,4.9104983E-5,-2.2089171E-4,-3.9718067E-4,-6.850217E-4,-3.7820166E-4,1.2302245E-3,-9.912531E-5,1.9832365E-3,3.2284257E-3,-6.766368E-5,-2.318952E-4,-3.8427877E-4,-1.2278088E-4,3.8329538E-4,9.048139E-4,-9.795577E-5,2.7152145E-4,1.0107795E-3,3.260152E-4,1.6093092E-3,2.3802852E-4,2.1017683E-3,2.797526E-3,1.7751129E-4,1.4729657E-3],"categories":[],"categories_nodes":[],"categories_segments":[],"categories_sizes":[],"default_left":[0,0,0,0,0,0,0,0,0,0,0,0,0,0,0,0,0,0,0,0,0,0,0,0,0,0,0,0,0,0,0,0,0,0,0,0,0,0,0,0,0,0,0,0,0,0,0,0,0,0,0,0,0,0,0,0,0,0,0,0,0,0,0,0,0,0,0,0,0,0,0,0,0,0,0,0,0,0,0,0,0,0,0,0,0,0,0,0,0,0,0,0,0,0,0,0,0,0,0,0,0,0,0,0,0,0,0,0,0,0,0,0,0,0,0,0,0,0,0,0,0,0,0,0,0,0,0],"id":19,"left_children":[1,3,5,7,9,11,13,15,17,19,21,23,25,27,29,31,33,35,37,39,41,43,45,47,49,51,53,55,57,59,61,63,65,67,69,71,73,75,77,79,81,83,85,87,89,91,93,95,97,99,101,103,105,107,109,111,113,115,117,119,121,123,125,-1,-1,-1,-1,-1,-1,-1,-1,-1,-1,-1,-1,-1,-1,-1,-1,-1,-1,-1,-1,-1,-1,-1,-1,-1,-1,-1,-1,-1,-1,-1,-1,-1,-1,-1,-1,-1,-1,-1,-1,-1,-1,-1,-1,-1,-1,-1,-1,-1,-1,-1,-1,-1,-1,-1,-1,-1,-1,-1,-1,-1,-1,-1,-1],"loss_changes":[1.8209763E2,5.138227E1,7.414219E1,2.8048796E1,1.169574E1,5.757065E0,5.013346E1,7.501138E0,9.6131325E-1,1.9510124E1,2.3613739E-1,1.2062988E0,1.4482136E0,6.9730663E0,9.840298E0,4.53978E0,9.056654E-1,1.3196564E-1,2.8242302E-1,5.000885E0,1.02825165E-1,1.5622711E-1,1.14970684E-1,6.5434265E-1,8.0115885E-2,1.4500866E0,1.7291766E-1,2.824215E0,3.0036576E0,2.0644035E0,2.2956314E0,3.5274556E0,5.67327E0,7.42033E-1,2.3557633E-2,1.0347557E-1,2.1951199E-2,2.9175663E-1,5.914688E-2,3.5800934E0,1.4519958E0,1.6718507E-2,8.66065E-2,7.569334E-2,8.4285736E-2,3.2679796E-2,4.7106266E-2,9.2648697E-1,5.083542E-1,3.0237397E-2,7.633263E-2,2.3207831E-1,1.3429775E0,5.4956347E-2,4.9503207E-2,9.265635E-1,2.6594582E0,5.549917E-1,2.853462E0,1.711432E0,3.7582016E-1,7.839203E-1,3.7120304E-1,0E0,0E0,0E0,0E0,0E0,0E0,0E0,0E0,0E0,0E0,0E0,0E0,0E0,0E0,0E0,0E0,0E0,0E0,0E0,0E0,0E0,0E0,0E0,0E0,0E0,0E0,0E0,0E0,0E0,0E0,0E0,0E0,0E0,0E0,0E0,0E0,0E0,0E0,0E0,0E0,0E0,0E0,0E0,0E0,0E0,0E0,0E0,0E0,0E0,0E0,0E0,0E0,0E0,0E0,0E0,0E0,0E0,0E0,0E0,0E0,0E0,0E0,0E0,0E0],"parents":[2147483647,0,0,1,1,2,2,3,3,4,4,5,5,6,6,7,7,8,8,9,9,10,10,11,11,12,12,13,13,14,14,15,15,16,16,17,17,18,18,19,19,20,20,21,21,22,22,23,23,24,24,25,25,26,26,27,27,28,28,29,29,30,30,31,31,32,32,33,33,34,34,35,35,36,36,37,37,38,38,39,39,40,40,41,41,42,42,43,43,44,44,45,45,46,46,47,47,48,48,49,49,50,50,51,51,52,52,53,53,54,54,55,55,56,56,57,57,58,58,59,59,60,60,61,61,62,62],"right_children":[2,4,6,8,10,12,14,16,18,20,22,24,26,28,30,32,34,36,38,40,42,44,46,48,50,52,54,56,58,60,62,64,66,68,70,72,74,76,78,80,82,84,86,88,90,92,94,96,98,100,102,104,106,108,110,112,114,116,118,120,122,124,126,-1,-1,-1,-1,-1,-1,-1,-1,-1,-1,-1,-1,-1,-1,-1,-1,-1,-1,-1,-1,-1,-1,-1,-1,-1,-1,-1,-1,-1,-1,-1,-1,-1,-1,-1,-1,-1,-1,-1,-1,-1,-1,-1,-1,-1,-1,-1,-1,-1,-1,-1,-1,-1,-1,-1,-1,-1,-1,-1,-1,-1,-1,-1,-1],"split_conditions":[1.770274E0,1.2E1,4.1681908E1,1.60934E0,1.60934E0,2.3818232E1,9.009085E2,2.54E-1,7E0,6.43736E-1,1E0,3.057746E1,2.253076E1,2.2208891E2,1.670495E3,4E0,6.43736E-1,2.54E-1,1E0,1E0,9.65604E-1,9.977908E0,5.08E-1,1.2E1,4.82802E1,1.1E1,4.82802E1,1.2E1,5E0,1.7E1,2E0,6.43736E-1,9E0,9E0,7.62E-1,2.574944E0,1.4162192E0,8.85137E0,1.287472E0,2E1,2E0,1.5E1,7.62E-1,1.9E1,1.287472E1,1.5E1,3.057746E0,1.2713786E1,1.8E1,1.5E1,1.0138842E2,6E0,1.8E1,3.6371082E1,1.6E1,1.1361941E2,1.9E1,5.191731E2,1.8E1,1.2E1,3.2743633E3,2.3433599E3,1.770274E0,6.009334E-4,-1.0641429E-3,-1.3679957E-4,1.2227007E-4,3.9949393E-4,7.434717E-4,-9.238247E-4,-1.4856472E-3,5.534382E-4,1.2731596E-3,2.497947E-3,1.6585073E-3,4.0433338E-4,8.7778934E-4,7.661628E-4,1.2336646E-3,4.497978E-4,7.4377126E-4,7.7983644E-4,1.3513415E-3,-9.6755783E-4,-7.403455E-4,-1.0446304E-3,-1.6210632E-3,4.5515067E-4,9.916489E-4,1.4036702E-3,1.0487218E-3,1.3710548E-3,1.09541E-3,1.9869914E-3,1.4681419E-3,-8.0409547E-4,-5.8999547E-4,-8.761063E-4,-7.5543247E-4,1.0229652E-3,-1.1484519E-4,1.9220507E-3,4.9104983E-5,-2.2089171E-4,-3.9718067E-4,-6.850217E-4,-3.7820166E-4,1.2302245E-3,-9.912531E-5,1.9832365E-3,3.2284257E-3,-6.766368E-5,-2.318952E-4,-3.8427877E-4,-1.2278088E-4,3.8329538E-4,9.048139E-4,-9.795577E-5,2.7152145E-4,1.0107795E-3,3.260152E-4,1.6093092E-3,2.3802852E-4,2.1017683E-3,2.797526E-3,1.7751129E-4,1.4729657E-3],"split_indices":[1,5,1,1,1,1,1,2,5,1,4,3,3,1,1,5,1,2,4,4,8,3,2,5,3,5,3,5,5,5,4,1,5,5,2,3,3,3,3,5,4,5,2,5,3,5,3,1,5,5,3,5,5,1,5,1,5,1,5,5,8,1,3,0,0,0,0,0,0,0,0,0,0,0,0,0,0,0,0,0,0,0,0,0,0,0,0,0,0,0,0,0,0,0,0,0,0,0,0,0,0,0,0,0,0,0,0,0,0,0,0,0,0,0,0,0,0,0,0,0,0,0,0,0,0,0,0],"split_type":[0,0,0,0,0,0,0,0,0,0,0,0,0,0,0,0,0,0,0,0,0,0,0,0,0,0,0,0,0,0,0,0,0,0,0,0,0,0,0,0,0,0,0,0,0,0,0,0,0,0,0,0,0,0,0,0,0,0,0,0,0,0,0,0,0,0,0,0,0,0,0,0,0,0,0,0,0,0,0,0,0,0,0,0,0,0,0,0,0,0,0,0,0,0,0,0,0,0,0,0,0,0,0,0,0,0,0,0,0,0,0,0,0,0,0,0,0,0,0,0,0,0,0,0,0,0,0],"sum_hessian":[4.469701E6,2.330425E6,2.139276E6,1.164543E6,1.165882E6,8.3175E5,1.307526E6,1.08632E6,7.8223E4,1.069461E6,9.6421E4,5.82836E5,2.48914E5,1.242836E6,6.469E4,1.009772E6,7.6548E4,1.9063E4,5.916E4,1.048349E6,2.1112E4,8.7848E4,8.573E3,5.82136E5,7E2,2.48115E5,7.99E2,8.74054E5,3.68782E5,4.6185E4,1.8505E4,4.3541E4,9.66231E5,7.5781E4,7.67E2,1.7229E4,1.834E3,5.2096E4,7.064E3,9.4081E5,1.07539E5,4.421E3,1.6691E4,2.737E3,8.5111E4,5.319E3,3.254E3,2.11852E5,3.70284E5,2.37E2,4.63E2,8.0439E4,1.67676E5,3.89E2,4.1E2,3.53222E5,5.20832E5,2.9072E4,3.3971E5,3.682E4,9.365E3,1.6252E4,2.253E3,4.0087E4,3.454E3,6.54046E5,3.12185E5,5.3621E4,2.216E4,3.57E2,4.1E2,5.17E2,1.6712E4,8.5E1,1.749E3,3.49E3,4.8606E4,7.65E2,6.299E3,8.22318E5,1.18492E5,9.495E4,1.2589E4,1.09E3,3.331E3,1.6009E4,6.82E2,1.634E3,1.103E3,1.715E3,8.3396E4,1.537E3,3.782E3,5.33E2,2.721E3,1.28581E5,8.3271E4,2.29246E5,1.41038E5,1.35E2,1.02E2,4E2,6.3E1,2.9466E4,5.0973E4,1.16213E5,5.1463E4,2.82E2,1.07E2,2.95E2,1.15E2,2.05868E5,1.47354E5,3.91473E5,1.29359E5,2.2472E4,6.6E3,2.75207E5,6.4503E4,2.0124E4,1.6696E4,8.835E3,5.3E2,8.335E3,7.917E3,1.28E3,9.73E2],"tree_param":{"num_deleted":"0","num_feature":"9","num_nodes":"127","size_leaf_vector":"1"}},{"base_weights":[-2.2165374E-5,-3.2410618E-2,1.20141E-1,-1.4783344E-1,-3.0975511E-2,1.0537347E-1,2.2397143E-1,-7.3430347E-3,-1.491198E-1,-3.279922E-2,-2.9406471E-2,1.0483667E-1,1.0767136E-1,2.244935E-1,2.137864E-1,-1.4958908E-1,-7.1624643E-3,-3.1707693E-2,-3.400685E-2,-2.7508529E-2,-3.0748775E-2,1.0529437E-1,1.0096654E-1,1.08568326E-1,9.714475E-2,2.2517663E-1,1.1091783E-2,1.0870363E-2,1.04514165E-2,-7.4950717E-3,-7.2631985E-3,-3.141623E-2,-3.666727E-2,-3.375915E-2,-3.7112027E-2,-2.7030198E-2,-2.8678449E-2,-3.0533826E-2,-3.901355E-2,1.0680595E-1,1.0413378E-1,1.01369485E-1,4.895494E-3,1.1136424E-1,1.080273E-1,1.0130867E-1,9.386797E-2,1.0994487E-2,2.2558068E-1,-1.5756636E-3,-1.2658824E-3,-1.9200664E-3,-1.8087922E-3,-1.7010644E-3,-1.2442622E-3,-1.7911512E-3,-1.8593932E-3,-1.3510744E-3,-1.9033349E-3,-1.4760938E-3,-1.414384E-3,-1.5061682E-3,-1.5850501E-3,-1.8437033E-3,-2.1751018E-3,5.3687524E-3,5.18013E-3,5.2322103E-3,5.0153267E-3,4.958844E-3,5.0829225E-3,5.587407E-3,4.576198E-3,5.4360507E-3,5.3291796E-3,5.131533E-3,4.8754746E-3,4.6596485E-3,5.1516304E-3,1.1404786E-2,1.1237502E-2],"categories":[],"categories_nodes":[],"categories_segments":[],"categories_sizes":[],"default_left":[0,0,0,0,0,0,0,0,0,0,0,0,0,0,0,0,0,0,0,0,0,0,0,0,0,0,0,0,0,0,0,0,0,0,0,0,0,0,0,0,0,0,0,0,0,0,0,0,0,0,0,0,0,0,0,0,0,0,0,0,0,0,0,0,0,0,0,0,0,0,0,0,0,0,0,0,0,0,0,0,0],"id":20,"left_children":[1,3,5,7,9,11,13,-1,15,17,19,21,23,25,27,29,-1,31,33,35,37,39,41,43,45,47,-1,-1,-1,-1,-1,49,51,53,55,57,59,61,63,65,67,69,-1,71,73,75,77,-1,79,-1,-1,-1,-1,-1,-1,-1,-1,-1,-1,-1,-1,-1,-1,-1,-1,-1,-1,-1,-1,-1,-1,-1,-1,-1,-1,-1,-1,-1,-1,-1,-1],"loss_changes":[1.739719E4,5.832363E2,1.4551797E3,3.2165527E-2,9.950684E0,1.0136719E0,5.805664E-1,0E0,2.9693604E-2,2.1190186E0,4.7617188E0,1.1821289E0,1.4747314E0,1.538086E-1,5.41687E-2,1.4038086E-3,0E0,1.2200928E0,5.860596E-1,4.326172E-1,1.9440918E0,1.0458984E0,7.7819824E-2,2.0739746E-1,1.591568E-1,1.4111328E-1,0E0,0E0,0E0,0E0,0E0,4.7143555E-1,3.8562775E-2,1.644104E0,4.180908E-3,5.178833E-2,7.324219E-2,5.102539E-1,2.6491165E-1,4.658203E-1,6.550293E-1,2.9846191E-2,0E0,1.6848755E-1,1.0998535E-1,1.726532E-2,3.3267975E-2,0E0,1.2207031E-1,0E0,0E0,0E0,0E0,0E0,0E0,0E0,0E0,0E0,0E0,0E0,0E0,0E0,0E0,0E0,0E0,0E0,0E0,0E0,0E0,0E0,0E0,0E0,0E0,0E0,0E0,0E0,0E0,0E0,0E0,0E0,0E0],"parents":[2147483647,0,0,1,1,2,2,3,3,4,4,5,5,6,6,8,8,9,9,10,10,11,11,12,12,13,13,14,14,15,15,17,17,18,18,19,19,20,20,21,21,22,22,23,23,24,24,25,25,31,31,32,32,33,33,34,34,35,35,36,36,37,37,38,38,39,39,40,40,41,41,43,43,44,44,45,45,46,46,48,48],"right_children":[2,4,6,8,10,12,14,-1,16,18,20,22,24,26,28,30,-1,32,34,36,38,40,42,44,46,48,-1,-1,-1,-1,-1,50,52,54,56,58,60,62,64,66,68,70,-1,72,74,76,78,-1,80,-1,-1,-1,-1,-1,-1,-1,-1,-1,-1,-1,-1,-1,-1,-1,-1,-1,-1,-1,-1,-1,-1,-1,-1,-1,-1,-1,-1,-1,-1,-1,-1],"split_conditions":[6E1,4E1,8E1,1.2E1,1.770274E0,1.770274E0,1.0661877E3,-7.3430347E-3,1E0,1.2E1,4.1681908E1,1.60934E0,1.0661877E3,2.494477E2,1.670495E3,6.43736E-1,-7.1624643E-3,1.60934E0,1.60934E0,2.3818232E1,1.0661877E3,1.2E1,1E0,4.1681908E1,1.670495E3,6.43736E-1,1.1091783E-2,1.0870363E-2,1.04514165E-2,-7.4950717E-3,-7.2631985E-3,6.43736E-1,7E0,6.43736E-1,6.759228E0,3.057746E1,1.1E1,2.494477E2,1.670495E3,1E0,1E0,7E0,4.895494E-3,2.574944E1,2.494477E2,1.7E1,2E0,1.0994487E-2,2.3818232E1,-1.5756636E-3,-1.2658824E-3,-1.9200664E-3,-1.8087922E-3,-1.7010644E-3,-1.2442622E-3,-1.7911512E-3,-1.8593932E-3,-1.3510744E-3,-1.9033349E-3,-1.4760938E-3,-1.414384E-3,-1.5061682E-3,-1.5850501E-3,-1.8437033E-3,-2.1751018E-3,5.3687524E-3,5.18013E-3,5.2322103E-3,5.0153267E-3,4.958844E-3,5.0829225E-3,5.587407E-3,4.576198E-3,5.4360507E-3,5.3291796E-3,5.131533E-3,4.8754746E-3,4.6596485E-3,5.1516304E-3,1.1404786E-2,1.1237502E-2],"split_indices":[0,0,0,5,1,1,1,0,4,5,1,1,1,1,1,1,0,1,1,1,1,5,4,1,1,1,0,0,0,0,0,1,5,1,3,3,5,1,1,4,4,5,0,3,1,5,4,0,8,0,0,0,0,0,0,0,0,0,0,0,0,0,0,0,0,0,0,0,0,0,0,0,0,0,0,0,0,0,0,0,0],"split_type":[0,0,0,0,0,0,0,0,0,0,0,0,0,0,0,0,0,0,0,0,0,0,0,0,0,0,0,0,0,0,0,0,0,0,0,0,0,0,0,0,0,0,0,0,0,0,0,0,0,0,0,0,0,0,0,0,0,0,0,0,0,0,0,0,0,0,0,0,0,0,0,0,0,0,0,0,0,0,0,0,0],"sum_hessian":[4.470101E6,3.521048E6,9.49053E5,4.324E4,3.477808E6,8.30881E5,1.18172E5,2.4687E4,1.8553E4,1.608366E6,1.869442E6,6.73577E5,1.57304E5,1.1239E5,5.782E3,1.7157E4,1.396E3,8.44806E5,7.6356E5,7.74443E5,1.094999E6,6.02318E5,7.1259E4,1.44944E5,1.236E4,8.9343E4,2.3047E4,3.258E3,2.524E3,1.597E4,1.187E3,7.97921E5,4.6885E4,7.07162E5,5.6398E4,5.49713E5,2.2473E5,1.067247E6,2.7752E4,2.61563E5,3.40755E5,6.2931E4,8.328E3,2.3467E4,1.21477E5,5.43E3,6.93E3,6.382E3,8.2961E4,7.85419E5,1.2502E4,1.0336E4,3.6549E4,6.86869E5,2.0293E4,3.16E3,5.3238E4,5.49283E5,4.3E2,7.113E4,1.536E5,7.89594E5,2.77653E5,1.88E4,8.952E3,2.22077E5,3.9486E4,3.00634E5,4.0121E4,7.368E3,5.5563E4,2.3017E4,4.5E2,8.2001E4,3.9476E4,4.009E3,1.421E3,6.465E3,4.65E2,2.0529E4,6.2432E4],"tree_param":{"num_deleted":"0","num_feature":"9","num_nodes":"81","size_leaf_vector":"1"}},{"base_weights":[1.2100128E-5,-3.0784208E-2,1.14131495E-1,-1.4045171E-1,-2.942631E-2,1.00107685E-1,2.1276581E-1,-1.409454E-1,-1.3094343E-1,-3.1159608E-2,-2.7935244E-2,1.007279E-1,9.328244E-2,2.1326806E-1,2.0308194E-1,-6.9907866E-3,-1.4245743E-1,-1.2260599E-1,-7.1972394E-3,-3.0121043E-2,-3.2307908E-2,-2.6099682E-2,-2.9188061E-2,1.008229E-1,8.916289E-2,8.406654E-2,9.6393295E-2,2.1362051E-1,2.0840701E-1,1.0324879E-2,9.9283485E-3,-7.1395743E-3,-6.8939193E-3,-1.20472364E-1,-7.1288133E-3,-2.9845934E-2,-3.4831867E-2,-3.2071818E-2,-3.526014E-2,-2.567822E-2,-2.721087E-2,-2.8986223E-2,-3.7044045E-2,1.00303605E-1,1.0315151E-1,4.9500624E-3,8.881621E-2,4.0924326E-3,9.364572E-2,9.513977E-2,1.0190157E-1,2.1527927E-1,2.1266529E-1,2.0002288E-1,2.119412E-1,-5.75773E-3,-6.2563643E-3,-1.4855356E-3,-1.7531803E-3,-1.7547446E-3,-1.5596676E-3,-1.6160592E-3,-1.1824587E-3,-1.7765297E-3,-1.5364189E-3,-1.2835016E-3,-1.8186275E-3,-1.400507E-3,-1.3421169E-3,-1.4298878E-3,-1.5057902E-3,-1.7510357E-3,-2.065773E-3,5.038227E-3,4.821924E-3,5.1704575E-3,4.803809E-3,